{"type":"LSTM","options":{"inputSize":25,"inputRange":25,"hiddenLayers":[20,20],"outputSize":25,"decayRate":0.999,"smoothEps":1e-8,"regc":0.000001,"clipval":5,"maxPredictionLength":100,"dataFormatter":{"values":["hello","greeting","welcome","hi","sup","whats up","yo","hey","what is the weather","weather","weather outside","time","what is the temperature","what is the temperature outside","temperature","tell me the temperature","tell me the weather","temperature outside","what is the time","exact time","tell me the time","what is the clock","clock","What is","what is","Who is","who is"],"indexTable":{"h":0,"e":1,"l":2,"o":3,"g":4,"r":5,"t":6,"i":7,"n":8,"w":9,"c":10,"m":11,"s":12,"u":13,"p":14,"a":15," ":16,"y":17,"d":18,"x":19,"k":20,"W":21,"stop-input":22,"start-output":23,"unrecognized":24},"characterTable":{"0":"h","1":"e","2":"l","3":"o","4":"g","5":"r","6":"t","7":"i","8":"n","9":"w","10":"c","11":"m","12":"s","13":"u","14":"p","15":"a","16":" ","17":"y","18":"d","19":"x","20":"k","21":"W","22":null,"23":null,"24":null},"characters":["h","e","l","o","g","r","t","i","n","w","c","m","s","u","p","a"," ","y","d","x","k","W","stop-input","start-output","unrecognized"],"specialIndexes":[22,23,24]}},"input":{"rows":26,"columns":25,"weights":{"0":0.2454410195350647,"1":1.9975647926330566,"2":0.9379371404647827,"3":3.270636796951294,"4":3.324890375137329,"5":1.6717506647109985,"6":-0.04959794133901596,"7":-0.029535086825489998,"8":2.635014772415161,"9":0.7567459344863892,"10":-2.28782057762146,"11":-0.7580504417419434,"12":-1.6406474113464355,"13":1.6037306785583496,"14":-0.18343020975589752,"15":-0.3806239664554596,"16":1.4892219305038452,"17":0.24129556119441986,"18":-0.13040009140968323,"19":-0.3014836609363556,"20":0.3818914592266083,"21":2.380465030670166,"22":1.3207170963287354,"23":-0.440673828125,"24":0.44789278507232666,"25":2.7890865802764893,"26":1.3346991539001465,"27":3.481766700744629,"28":2.7413508892059326,"29":-0.3124919533729553,"30":-0.4313488006591797,"31":-3.56180477142334,"32":2.8620526790618896,"33":1.4445642232894897,"34":1.6461827754974365,"35":2.262650728225708,"36":3.6548984050750732,"37":-0.11754772812128067,"38":5.410890102386475,"39":-1.1996179819107056,"40":-0.3687920868396759,"41":-0.43267178535461426,"42":-0.28572702407836914,"43":-1.4546631574630737,"44":4.666210651397705,"45":2.497957706451416,"46":7.386234760284424,"47":4.229944229125977,"48":-1.288112759590149,"49":-0.48671454191207886,"50":1.82860267162323,"51":0.19638316333293915,"52":2.5556485652923584,"53":1.211704134941101,"54":-1.2175159454345703,"55":-2.8539986610412598,"56":2.306145429611206,"57":0.5837950110435486,"58":-2.2446765899658203,"59":3.982797384262085,"60":-0.8896545767784119,"61":2.118654489517212,"62":-0.11823441088199615,"63":1.835982322692871,"64":0.4516085982322693,"65":-2.1742913722991943,"66":0.5400911569595337,"67":1.9675253629684448,"68":-0.9235110878944397,"69":-0.45015010237693787,"70":-1.1443710327148438,"71":-0.8361027240753174,"72":-0.6165234446525574,"73":-8.10952091217041,"74":1.316078543663025,"75":4.175716400146484,"76":4.024504661560059,"77":-1.3206251859664917,"78":0.6760838031768799,"79":-0.8916423320770264,"80":1.8450438976287842,"81":-3.1399693489074707,"82":-3.733156204223633,"83":-6.12150764465332,"84":6.253017902374268,"85":-3.128811836242676,"86":-4.813856601715088,"87":-2.633333444595337,"88":11.54655933380127,"89":-1.7265210151672363,"90":1.9481476545333862,"91":11.021492004394531,"92":9.523702621459961,"93":1.4613277912139893,"94":-0.7074459791183472,"95":-6.922789573669434,"96":0.8961061835289001,"97":-2.8069872856140137,"98":1.1284171342849731,"99":-0.8422995209693909,"100":-0.7521181702613831,"101":4.647000312805176,"102":-0.4291495382785797,"103":2.6648027896881104,"104":-2.975689649581909,"105":0.2339652180671692,"106":-3.228177547454834,"107":-4.8190388679504395,"108":-8.001076698303223,"109":-3.6240742206573486,"110":0.2924536168575287,"111":-2.0539209842681885,"112":5.52667236328125,"113":-5.143617630004883,"114":-1.9077619314193726,"115":-1.6229374408721924,"116":7.946639060974121,"117":3.423100233078003,"118":1.2502954006195068,"119":-1.2881758213043213,"120":7.669511795043945,"121":6.297903537750244,"122":0.28665825724601746,"123":3.1378421783447266,"124":-2.5330004692077637,"125":0.6041982173919678,"126":-2.0184850692749023,"127":-1.5156619548797607,"128":1.8048150539398193,"129":2.2070419788360596,"130":-1.7183741331100464,"131":-4.230406284332275,"132":-1.1450979709625244,"133":3.312884569168091,"134":-4.871968746185303,"135":6.940976619720459,"136":0.5657305717468262,"137":3.438803195953369,"138":-0.2964949905872345,"139":3.0450117588043213,"140":-0.30196258425712585,"141":-2.48103928565979,"142":-3.1045339107513428,"143":-0.3856384754180908,"144":5.685919284820557,"145":3.811400890350342,"146":4.1434006690979,"147":-0.2800286114215851,"148":4.771810531616211,"149":-1.8185734748840332,"150":4.54120397567749,"151":-1.212637186050415,"152":1.9592735767364502,"153":2.0641982555389404,"154":5.139207363128662,"155":2.4889190196990967,"156":3.5635180473327637,"157":-1.5059654712677002,"158":2.4718711376190186,"159":-1.3247629404067993,"160":-1.6700937747955322,"161":2.919191837310791,"162":-4.5944743156433105,"163":1.2103638648986816,"164":0.6847231388092041,"165":0.3661101758480072,"166":0.2708342671394348,"167":-1.723692774772644,"168":0.01290949434041977,"169":-0.20536082983016968,"170":0.9597240090370178,"171":1.077117919921875,"172":-0.45482057332992554,"173":0.4883023798465729,"174":1.3568873405456543,"175":1.2102757692337036,"176":0.9342989921569824,"177":1.71073579788208,"178":3.1758973598480225,"179":-2.785053253173828,"180":-0.6746206879615784,"181":0.08816178143024445,"182":0.5044420957565308,"183":0.15826882421970367,"184":0.4164086878299713,"185":0.19982275366783142,"186":1.9018372297286987,"187":6.311347484588623,"188":1.1165097951889038,"189":0.7190422415733337,"190":0.04627394676208496,"191":2.209315538406372,"192":2.1774232387542725,"193":-1.2363386154174805,"194":0.6669200658798218,"195":2.0884385108947754,"196":2.398082971572876,"197":1.3615237474441528,"198":1.7616660594940186,"199":-5.865015506744385,"200":1.073325753211975,"201":-0.9219896197319031,"202":1.7937923669815063,"203":4.186341285705566,"204":0.9694840908050537,"205":2.6695282459259033,"206":5.574006080627441,"207":1.5294805765151978,"208":-4.103196144104004,"209":-3.468859910964966,"210":0.7326288819313049,"211":2.831937313079834,"212":-0.9837765693664551,"213":-3.1999008655548096,"214":0.07169166952371597,"215":1.294390082359314,"216":0.7931621670722961,"217":0.08662431687116623,"218":-2.782011032104492,"219":-4.694083213806152,"220":-3.1667373180389404,"221":-0.1762281209230423,"222":-0.5783512592315674,"223":-1.2812073230743408,"224":0.054598886519670486,"225":0.059157103300094604,"226":-1.254265308380127,"227":-3.62569260597229,"228":-1.624866008758545,"229":-0.8891535997390747,"230":-5.449909210205078,"231":-1.2814106941223145,"232":-0.8330736756324768,"233":1.665079951286316,"234":0.9995551109313965,"235":6.994076251983643,"236":0.22544631361961365,"237":1.0331366062164307,"238":-0.6068013310432434,"239":-6.805429458618164,"240":-0.17844818532466888,"241":3.1508123874664307,"242":-3.9850311279296875,"243":2.6833972930908203,"244":-1.1644538640975952,"245":1.3216338157653809,"246":0.3602113723754883,"247":-1.1881210803985596,"248":-6.624812602996826,"249":-0.5080685615539551,"250":-1.2321572303771973,"251":2.5310323238372803,"252":-1.9874176979064941,"253":-8.755998611450195,"254":-2.9777843952178955,"255":-1.7142643928527832,"256":-0.06046126410365105,"257":-6.522783279418945,"258":0.4287283420562744,"259":1.5587815046310425,"260":2.159616708755493,"261":-3.611264228820801,"262":-2.3238940238952637,"263":-2.762594223022461,"264":-1.9436055421829224,"265":-1.7691129446029663,"266":-4.090939998626709,"267":-2.626392126083374,"268":-2.6080079078674316,"269":1.7199180126190186,"270":4.86041259765625,"271":0.44162479043006897,"272":-2.844871759414673,"273":3.0806450843811035,"274":-3.178443193435669,"275":-0.6668071746826172,"276":-5.686112880706787,"277":0.7222391366958618,"278":0.38863426446914673,"279":-7.164342403411865,"280":-6.734320163726807,"281":-8.451472282409668,"282":12.360694885253906,"283":-7.473578453063965,"284":-4.653472900390625,"285":1.0107547044754028,"286":7.036454200744629,"287":8.64553451538086,"288":-0.2857268750667572,"289":2.6369969844818115,"290":3.0522143840789795,"291":5.935253143310547,"292":-8.50415325164795,"293":2.827923059463501,"294":5.154099941253662,"295":2.032744884490967,"296":-4.960704326629639,"297":-1.880428433418274,"298":1.7818013429641724,"299":1.6253986358642578,"300":-5.02626371383667,"301":-1.920792818069458,"302":4.774589538574219,"303":1.7232733964920044,"304":0.47970789670944214,"305":-0.2399800568819046,"306":-3.6557834148406982,"307":1.659861445426941,"308":-1.5933539867401123,"309":1.1034868955612183,"310":1.6665027141571045,"311":-3.714616060256958,"312":7.736544609069824,"313":3.276155471801758,"314":4.844261646270752,"315":-0.3150918483734131,"316":4.038646697998047,"317":-2.665966033935547,"318":-1.989676594734192,"319":7.050436973571777,"320":1.745711088180542,"321":2.555082321166992,"322":0.5362564325332642,"323":3.049762487411499,"324":-5.01146936416626,"325":-6.13007926940918,"326":-3.845097541809082,"327":3.041658401489258,"328":-0.05745898187160492,"329":4.466375827789307,"330":2.3857734203338623,"331":-4.677121639251709,"332":1.8287137746810913,"333":0.31819790601730347,"334":-0.3731696605682373,"335":0.890376091003418,"336":-0.5644100904464722,"337":3.705043315887451,"338":-4.53571891784668,"339":-0.24525046348571777,"340":4.66598653793335,"341":-0.4282512366771698,"342":-1.9345825910568237,"343":-7.030451774597168,"344":-4.115381717681885,"345":0.7066290378570557,"346":-1.8346951007843018,"347":-3.975782871246338,"348":-0.43949949741363525,"349":-2.17410945892334,"350":3.805798053741455,"351":7.912442207336426,"352":-1.169484257698059,"353":-0.4023805558681488,"354":-5.230834484100342,"355":-2.414086103439331,"356":1.4076259136199951,"357":-2.46543288230896,"358":3.3174827098846436,"359":-1.4293696880340576,"360":-3.8611204624176025,"361":-0.906676173210144,"362":-6.284998416900635,"363":-2.593747615814209,"364":3.876011848449707,"365":-9.62132740020752,"366":-4.270298004150391,"367":2.7192702293395996,"368":2.2365567684173584,"369":1.9364604949951172,"370":-7.0245466232299805,"371":0.8647345304489136,"372":8.854129791259766,"373":-4.043609619140625,"374":8.89797306060791,"375":-0.42330819368362427,"376":-2.195526599884033,"377":-5.60086727142334,"378":-2.4036660194396973,"379":0.8465762734413147,"380":0.6264863014221191,"381":0.9478567838668823,"382":3.280498743057251,"383":-0.28680703043937683,"384":4.426921367645264,"385":1.2687824964523315,"386":9.73093032836914,"387":1.7534815073013306,"388":-8.403895378112793,"389":-2.8093764781951904,"390":4.39738655090332,"391":4.667995929718018,"392":-8.64159870147705,"393":-0.8240633010864258,"394":-2.2161219120025635,"395":2.637545347213745,"396":4.053956031799316,"397":3.784536361694336,"398":-2.565110921859741,"399":4.357496738433838,"400":1.5802850723266602,"401":1.7158950567245483,"402":3.7367396354675293,"403":-0.8271712064743042,"404":2.554243326187134,"405":-3.399726152420044,"406":-1.1188985109329224,"407":-4.960986137390137,"408":-0.27870073914527893,"409":0.44203105568885803,"410":-0.6583259105682373,"411":1.5249948501586914,"412":7.258098125457764,"413":4.79657506942749,"414":-9.526607513427734,"415":-0.5420698523521423,"416":2.4967191219329834,"417":-0.46084874868392944,"418":3.519843339920044,"419":-0.415342777967453,"420":4.250312805175781,"421":4.186458587646484,"422":1.80146324634552,"423":3.545971393585205,"424":-7.863629341125488,"425":-5.005535125732422,"426":-9.460243225097656,"427":2.9157497882843018,"428":-1.5606050491333008,"429":0.045737192034721375,"430":0.37464237213134766,"431":-2.444700002670288,"432":1.5174682140350342,"433":0.11456188559532166,"434":0.17791752517223358,"435":0.5022103190422058,"436":1.5781959295272827,"437":3.559185743331909,"438":-3.459719181060791,"439":-1.1670886278152466,"440":2.3681349754333496,"441":0.9472694993019104,"442":-0.7127980589866638,"443":-2.519530773162842,"444":-0.1204698383808136,"445":2.287169933319092,"446":-1.9833654165267944,"447":-4.298933982849121,"448":0.6514073610305786,"449":-2.3549675941467285,"450":-1.3780303001403809,"451":-10.433001518249512,"452":1.0572491884231567,"453":1.1342157125473022,"454":3.505866527557373,"455":-5.625879764556885,"456":-6.640394687652588,"457":4.179475784301758,"458":4.635740756988525,"459":-2.6209444999694824,"460":-9.957836151123047,"461":10.703269004821777,"462":6.502255439758301,"463":-0.5481402277946472,"464":-6.464389324188232,"465":10.112032890319824,"466":7.5598578453063965,"467":-13.050973892211914,"468":-2.842942714691162,"469":-5.653759002685547,"470":-6.407011032104492,"471":-5.2479352951049805,"472":-6.9176154136657715,"473":-2.2464661598205566,"474":-7.9426469802856445,"475":-5.497514724731445,"476":1.4600121974945068,"477":-1.265994906425476,"478":-0.018180502578616142,"479":-0.7270763516426086,"480":-7.1434407234191895,"481":-3.731926202774048,"482":9.825361251831055,"483":-0.06110791116952896,"484":5.08417272567749,"485":-4.900085926055908,"486":0.5554510354995728,"487":7.998936176300049,"488":-0.21566113829612732,"489":-3.945897340774536,"490":3.6865057945251465,"491":5.812449932098389,"492":-4.327068328857422,"493":0.07486721128225327,"494":0.4549722671508789,"495":-0.4232627749443054,"496":0.7447330355644226,"497":2.465543031692505,"498":6.840520858764648,"499":-10.630115509033203,"500":20.77036476135254,"501":-9.251276016235352,"502":3.2751758098602295,"503":13.257165908813477,"504":21.247957229614258,"505":13.951187133789062,"506":9.795998573303223,"507":-3.9414947032928467,"508":1.9889814853668213,"509":-11.208708763122559,"510":-9.076141357421875,"511":-1.0568927526474,"512":-6.664700508117676,"513":-4.527885437011719,"514":1.733154535293579,"515":-5.932615280151367,"516":7.348719120025635,"517":4.583763599395752,"518":-1.5195262432098389,"519":-0.6260792016983032,"520":-4.528038501739502,"521":-12.38043212890625,"522":5.359951019287109,"523":8.031121253967285,"524":6.608170986175537,"525":10.942060470581055,"526":5.889063835144043,"527":-4.115851402282715,"528":1.1346911191940308,"529":9.053047180175781,"530":0.9786548018455505,"531":5.775796413421631,"532":-10.111000061035156,"533":5.031861305236816,"534":-3.974968910217285,"535":1.5948408842086792,"536":7.189929962158203,"537":-5.4203925132751465,"538":-1.1785528659820557,"539":-3.526958703994751,"540":0.6316148042678833,"541":-3.3214221000671387,"542":1.5022737979888916,"543":3.403986692428589,"544":-2.081508159637451,"545":-8.817829132080078,"546":-0.12454034388065338,"547":-0.3018050193786621,"548":-3.7211203575134277,"549":-7.368155479431152,"550":5.32589864730835,"551":12.520217895507812,"552":0.6864973902702332,"553":-3.7899856567382812,"554":-6.2991156578063965,"555":5.002753257751465,"556":-5.263650894165039,"557":0.5314403772354126,"558":-9.609393119812012,"559":-5.856382369995117,"560":0.11949582397937775,"561":-15.774677276611328,"562":-6.520914554595947,"563":5.6800737380981445,"564":0.7650441527366638,"565":-1.4257363080978394,"566":7.835568428039551,"567":14.165519714355469,"568":20.97150230407715,"569":-7.7934699058532715,"570":-8.774197578430176,"571":-3.6670587062835693,"572":3.903529644012451,"573":-13.026422500610352,"574":1.0012519359588623,"575":-2.956063985824585,"576":-0.10338281840085983,"577":0.5597331523895264,"578":-0.20201732218265533,"579":-2.143615245819092,"580":0.950464129447937,"581":-0.422079473733902,"582":2.2739245891571045,"583":-1.3813316822052002,"584":-0.12417715042829514,"585":2.011516809463501,"586":-3.9466912746429443,"587":3.0484330654144287,"588":0.9721180200576782,"589":3.4033823013305664,"590":3.2158315181732178,"591":-2.515981435775757,"592":0.7312352657318115,"593":1.4954655170440674,"594":2.2129688262939453,"595":-2.5342063903808594,"596":-1.3326549530029297,"597":1.5134426355361938,"598":-4.899986743927002,"599":3.3917236328125,"600":3.6171414852142334,"601":3.199195623397827,"602":-0.7810797095298767,"603":-0.8514119982719421,"604":-1.69693922996521,"605":-1.215491771697998,"606":0.5464442372322083,"607":-4.327687740325928,"608":3.1848671436309814,"609":0.4522487223148346,"610":-2.113274335861206,"611":-0.5856724381446838,"612":-0.47234049439430237,"613":1.3943425416946411,"614":-0.14291632175445557,"615":-0.17457996308803558,"616":-2.1053290367126465,"617":2.3154006004333496,"618":1.6257706880569458,"619":-1.3060355186462402,"620":-0.5852782130241394,"621":-3.7801172733306885,"622":3.308708667755127,"623":-3.473222017288208,"624":1.208437442779541,"625":0.012974521145224571,"626":-0.03146249055862427,"627":-0.020237160846590996,"628":0.04666789993643761,"629":-0.019207200035452843,"630":0.010853778570890427,"631":0.01724420301616192,"632":0.018852204084396362,"633":0.04715004935860634,"634":-0.011122225783765316,"635":-0.014687668532133102,"636":0.02473658137023449,"637":-0.03777037560939789,"638":0.028305912390351295,"639":-0.04676937684416771,"640":-0.04100699722766876,"641":-0.00813243631273508,"642":0.01817556656897068,"643":0.0016634761122986674,"644":0.04178375378251076,"645":0.028995946049690247,"646":0.040589798241853714,"647":-0.0076440852135419846,"648":0.034676648676395416,"649":-0.02654648758471012}},"hiddenLayers":[{"inputMatrix":{"rows":20,"columns":25,"weights":{"0":-0.1553826481103897,"1":-0.5779589414596558,"2":2.861476182937622,"3":0.24649758636951447,"4":-1.5327852964401245,"5":-0.3217853307723999,"6":0.0381721630692482,"7":2.5671682357788086,"8":-4.016484260559082,"9":0.2121887505054474,"10":-0.22350622713565826,"11":2.0695414543151855,"12":2.987828493118286,"13":-0.28665274381637573,"14":-1.2680803537368774,"15":0.5220439434051514,"16":1.3633289337158203,"17":1.3144394159317017,"18":-0.9772700071334839,"19":-2.303318500518799,"20":0.6369196772575378,"21":0.41802647709846497,"22":1.0934334993362427,"23":1.3510677814483643,"24":-1.7505171298980713,"25":1.560144066810608,"26":-0.43462052941322327,"27":0.018845338374376297,"28":0.30869805812835693,"29":0.5958542227745056,"30":0.34567123651504517,"31":4.201928615570068,"32":1.4401050806045532,"33":1.9325841665267944,"34":-1.007352590560913,"35":-1.219469666481018,"36":1.5667701959609985,"37":-1.1291773319244385,"38":-1.4816701412200928,"39":3.6890709400177,"40":-1.0323535203933716,"41":1.815022349357605,"42":0.059237025678157806,"43":-0.5379840135574341,"44":-0.5436938405036926,"45":1.0173008441925049,"46":-2.582157611846924,"47":1.5514463186264038,"48":0.7581672072410583,"49":8.19580364227295,"50":-2.834404468536377,"51":-0.6161849498748779,"52":-0.44048863649368286,"53":-3.101749897003174,"54":-4.829033851623535,"55":-1.8510315418243408,"56":-4.129230976104736,"57":-0.7294217348098755,"58":0.6945574879646301,"59":-1.2462929487228394,"60":0.08422107249498367,"61":-1.3255000114440918,"62":2.09724760055542,"63":0.5487278699874878,"64":-0.948187530040741,"65":-1.415511965751648,"66":0.6793361306190491,"67":0.2772337794303894,"68":0.08405543118715286,"69":-0.8954786062240601,"70":2.254629611968994,"71":-1.8717522621154785,"72":-0.8197908997535706,"73":-0.42278438806533813,"74":-3.083677291870117,"75":1.1757745742797852,"76":0.42939990758895874,"77":-2.2868354320526123,"78":1.6079272031784058,"79":2.7120227813720703,"80":1.2703015804290771,"81":1.4733248949050903,"82":0.6863600611686707,"83":3.8721485137939453,"84":-4.649966239929199,"85":-0.1614610105752945,"86":1.379313588142395,"87":-0.2914482653141022,"88":-1.0853381156921387,"89":1.5288349390029907,"90":-0.9355846643447876,"91":-0.252178817987442,"92":0.1363571584224701,"93":-0.21232888102531433,"94":-0.12415727227926254,"95":1.5268267393112183,"96":-2.2665820121765137,"97":0.5155221223831177,"98":0.846147894859314,"99":2.5215156078338623,"100":-1.514241099357605,"101":-0.6048609018325806,"102":-3.545889139175415,"103":-1.2569278478622437,"104":1.6413830518722534,"105":-1.0796722173690796,"106":-2.411015510559082,"107":1.4700307846069336,"108":1.2256916761398315,"109":-2.185601234436035,"110":-1.7045862674713135,"111":0.6552531719207764,"112":0.3187852203845978,"113":-1.1044124364852905,"114":-1.8290321826934814,"115":1.5460656881332397,"116":-0.18710100650787354,"117":-0.07852685451507568,"118":4.395106792449951,"119":0.2658156752586365,"120":-2.764932632446289,"121":-1.6182514429092407,"122":0.21966558694839478,"123":-1.5876543521881104,"124":2.5709218978881836,"125":0.6453770399093628,"126":-0.9163651466369629,"127":-1.582572102546692,"128":-2.2948038578033447,"129":-0.8662466406822205,"130":-0.4505724608898163,"131":0.04528966173529625,"132":1.368965744972229,"133":2.385854959487915,"134":-0.5231163501739502,"135":0.5487458109855652,"136":0.37110722064971924,"137":1.8652211427688599,"138":-1.5162235498428345,"139":2.464094638824463,"140":1.5938496589660645,"141":-2.8928542137145996,"142":0.27459216117858887,"143":1.7659415006637573,"144":1.2809739112854004,"145":0.2591048777103424,"146":-2.92875337600708,"147":0.5309467315673828,"148":1.2205579280853271,"149":3.888265371322632,"150":-2.12848162651062,"151":0.5981326699256897,"152":2.3000969886779785,"153":-1.129855751991272,"154":-1.3378392457962036,"155":0.7228004932403564,"156":-0.5105799436569214,"157":3.06626033782959,"158":-0.1909295916557312,"159":0.23161502182483673,"160":1.783893346786499,"161":-1.3951598405838013,"162":3.9080426692962646,"163":-0.980705201625824,"164":-0.19236937165260315,"165":0.08433956652879715,"166":0.06828214228153229,"167":-2.763225793838501,"168":-0.3271087110042572,"169":0.5058421492576599,"170":1.927901029586792,"171":-0.6288618445396423,"172":0.5252529382705688,"173":0.996447741985321,"174":-1.7862019538879395,"175":-3.303234100341797,"176":-2.152705669403076,"177":-0.7422609329223633,"178":-3.7332427501678467,"179":-1.3846074342727661,"180":-2.4385478496551514,"181":-1.3563416004180908,"182":2.15541410446167,"183":0.21147263050079346,"184":1.7517623901367188,"185":-0.24258548021316528,"186":0.3891836106777191,"187":-0.8526726365089417,"188":-0.43867915868759155,"189":-1.4010059833526611,"190":1.3611353635787964,"191":-1.7038689851760864,"192":-0.9801396727561951,"193":-0.9314959645271301,"194":-1.0619925260543823,"195":-0.21326926350593567,"196":-0.5781652927398682,"197":-2.2140300273895264,"198":-2.906229019165039,"199":0.20946264266967773,"200":-2.8071277141571045,"201":-0.5568904876708984,"202":-0.13751433789730072,"203":-0.7469748258590698,"204":-2.1396982669830322,"205":0.22243019938468933,"206":-1.730900764465332,"207":2.3830671310424805,"208":-0.8395470380783081,"209":0.6955888271331787,"210":1.3605101108551025,"211":-1.0895847082138062,"212":2.258208990097046,"213":-0.5538070797920227,"214":0.260288804769516,"215":1.165204405784607,"216":-0.36993688344955444,"217":-1.3570870161056519,"218":0.6575826406478882,"219":3.0666756629943848,"220":1.583498477935791,"221":1.5907950401306152,"222":1.6507474184036255,"223":1.666487216949463,"224":-1.6092416048049927,"225":-2.966251850128174,"226":-0.8391574621200562,"227":-2.0604610443115234,"228":-2.4400954246520996,"229":-1.8917344808578491,"230":-3.9349143505096436,"231":0.3037513494491577,"232":-1.0335747003555298,"233":-0.2476484626531601,"234":0.4976032078266144,"235":-1.4877290725708008,"236":-0.3888913094997406,"237":-1.6989585161209106,"238":-0.8394556641578674,"239":0.35255223512649536,"240":-0.9339324235916138,"241":-1.6012934446334839,"242":-0.6087616682052612,"243":-0.7978046536445618,"244":0.16287748515605927,"245":-1.014575719833374,"246":-2.0612356662750244,"247":0.4181569814682007,"248":-1.4532766342163086,"249":1.5524696111679077,"250":-0.5425213575363159,"251":-0.16791541874408722,"252":0.1857009381055832,"253":-2.2065207958221436,"254":-0.706104040145874,"255":-3.8179757595062256,"256":-0.8541083335876465,"257":3.586402416229248,"258":1.067459225654602,"259":2.8095972537994385,"260":0.5704358816146851,"261":2.26315975189209,"262":1.7735217809677124,"263":0.7847506999969482,"264":-0.9912365674972534,"265":-1.9461926221847534,"266":0.7590807676315308,"267":-2.0320346355438232,"268":-2.187208890914917,"269":0.9429805278778076,"270":-0.8828325271606445,"271":-0.9572024941444397,"272":0.5188470482826233,"273":2.1757254600524902,"274":-1.8070542812347412,"275":-2.194905996322632,"276":-1.241166353225708,"277":-2.507542610168457,"278":-2.514657974243164,"279":1.9051533937454224,"280":1.9028279781341553,"281":-1.1671340465545654,"282":-0.8660152554512024,"283":2.1263768672943115,"284":-0.13637271523475647,"285":0.9018453359603882,"286":-3.139267921447754,"287":-1.005990982055664,"288":-3.0582799911499023,"289":0.4558483064174652,"290":1.63970947265625,"291":-2.373870611190796,"292":3.9184229373931885,"293":2.5847179889678955,"294":-1.3444218635559082,"295":-0.8430463671684265,"296":-2.8134942054748535,"297":-0.4756625294685364,"298":-1.8616559505462646,"299":-0.7192074060440063,"300":-2.9014155864715576,"301":-1.9705660343170166,"302":0.08847089856863022,"303":-0.3890075385570526,"304":-1.435836911201477,"305":0.35632988810539246,"306":-2.7015504837036133,"307":-0.045698001980781555,"308":-0.6567136645317078,"309":2.39902400970459,"310":1.3193668127059937,"311":-1.260420322418213,"312":2.6203811168670654,"313":-0.9127947688102722,"314":-0.8091965913772583,"315":0.9791563153266907,"316":-0.9781804084777832,"317":-1.045723557472229,"318":-1.3585454225540161,"319":1.9769619703292847,"320":0.4815763235092163,"321":1.0236724615097046,"322":0.7884100675582886,"323":-0.6634320020675659,"324":-1.2761950492858887,"325":-0.7853633761405945,"326":-1.4435652494430542,"327":2.126962184906006,"328":-0.720768392086029,"329":-1.2661470174789429,"330":-2.56559681892395,"331":-0.8664934039115906,"332":2.5678110122680664,"333":0.6831969022750854,"334":0.11039970815181732,"335":0.886943519115448,"336":-0.4959436357021332,"337":3.2102763652801514,"338":0.45072120428085327,"339":2.3664755821228027,"340":1.2912955284118652,"341":-2.4295523166656494,"342":0.025480380281805992,"343":0.6598613858222961,"344":2.133525848388672,"345":0.9076305627822876,"346":-1.5863912105560303,"347":0.018999677151441574,"348":-0.5785877108573914,"349":-2.374037504196167,"350":0.6660550832748413,"351":-0.44300734996795654,"352":1.7978308200836182,"353":1.4178035259246826,"354":1.8258693218231201,"355":0.48788779973983765,"356":3.066528558731079,"357":-1.4856458902359009,"358":1.336931586265564,"359":0.7668095827102661,"360":-2.411036729812622,"361":3.102144241333008,"362":-1.1144886016845703,"363":2.810245990753174,"364":0.08378475904464722,"365":0.2301018238067627,"366":-1.038785696029663,"367":4.026151657104492,"368":0.23422826826572418,"369":0.5424497127532959,"370":-0.2741660475730896,"371":0.19595594704151154,"372":-0.0457175076007843,"373":0.9471824765205383,"374":-1.2474851608276367,"375":-0.44718483090400696,"376":-1.228251576423645,"377":0.9424123167991638,"378":-0.8663542866706848,"379":-2.7233834266662598,"380":-1.2308367490768433,"381":0.3878971338272095,"382":0.09498261660337448,"383":0.7736284732818604,"384":0.445848286151886,"385":1.5918961763381958,"386":0.018025195226073265,"387":1.443471074104309,"388":-2.195415496826172,"389":-0.8610236048698425,"390":0.7926661968231201,"391":-0.1757657676935196,"392":0.4096284508705139,"393":-1.443991780281067,"394":-1.2784899473190308,"395":1.1716222763061523,"396":-4.986229419708252,"397":-4.171083927154541,"398":-2.897806406021118,"399":1.7212082147598267,"400":0.35176122188568115,"401":2.2199137210845947,"402":0.11308694630861282,"403":-0.8195875883102417,"404":-1.3101686239242554,"405":0.2532740533351898,"406":-1.8577916622161865,"407":-0.27490800619125366,"408":-0.29306453466415405,"409":4.098795413970947,"410":-1.5586637258529663,"411":-4.0708465576171875,"412":0.6485477089881897,"413":4.397000789642334,"414":-1.0370910167694092,"415":-1.1836389303207397,"416":0.25488340854644775,"417":1.2856130599975586,"418":-0.26595547795295715,"419":0.49435925483703613,"420":0.20901170372962952,"421":2.133817434310913,"422":0.8117877244949341,"423":-2.701385498046875,"424":-1.6138941049575806,"425":-0.08301820605993271,"426":3.213867664337158,"427":-0.6734122037887573,"428":-0.23531563580036163,"429":0.18286888301372528,"430":-2.2493178844451904,"431":-1.3557697534561157,"432":-2.1351003646850586,"433":0.9014016389846802,"434":-0.534343957901001,"435":0.6252459287643433,"436":1.9480595588684082,"437":0.3435748517513275,"438":-3.0869083404541016,"439":-2.458583116531372,"440":-4.356747627258301,"441":-2.327855348587036,"442":-2.126772165298462,"443":-0.22074587643146515,"444":0.7907540202140808,"445":0.3845663368701935,"446":1.845717191696167,"447":5.524632930755615,"448":1.2839329242706299,"449":-1.7926177978515625,"450":-0.3854902982711792,"451":0.057113390415906906,"452":-0.789614737033844,"453":-2.557464361190796,"454":0.35955339670181274,"455":-0.43872082233428955,"456":-1.200549602508545,"457":-0.9959157705307007,"458":-1.0005273818969727,"459":-0.9275401830673218,"460":1.1847037076950073,"461":-1.04806387424469,"462":1.4311195611953735,"463":-1.0840433835983276,"464":2.0346014499664307,"465":0.2763824462890625,"466":-2.0582761764526367,"467":0.7414140701293945,"468":1.122585415840149,"469":1.0285512208938599,"470":0.9722794890403748,"471":-0.03718222677707672,"472":-3.0903284549713135,"473":3.7658727169036865,"474":-0.44268715381622314,"475":1.7561837434768677,"476":-1.074169397354126,"477":3.504554271697998,"478":0.7626945972442627,"479":0.05684644356369972,"480":1.4059830904006958,"481":-0.5039142370223999,"482":2.334897756576538,"483":-2.9882311820983887,"484":0.4741072952747345,"485":-0.7291505336761475,"486":-1.1355663537979126,"487":1.0935320854187012,"488":3.9819235801696777,"489":1.2886347770690918,"490":3.145434856414795,"491":1.5656354427337646,"492":0.6187683939933777,"493":-2.497156858444214,"494":0.8186221122741699,"495":-1.223989725112915,"496":-0.47454264760017395,"497":-0.8254224061965942,"498":-0.3744088411331177,"499":0.2516395151615143}},"inputHidden":{"rows":20,"columns":20,"weights":{"0":-0.25428205728530884,"1":-2.8116791248321533,"2":-0.532582700252533,"3":0.5476469397544861,"4":4.320989608764648,"5":1.7972644567489624,"6":1.203125238418579,"7":0.8156806826591492,"8":0.022117093205451965,"9":1.1623984575271606,"10":-0.9601112008094788,"11":0.8688604235649109,"12":2.164358139038086,"13":1.272546648979187,"14":-0.5627884268760681,"15":4.672680377960205,"16":0.3323674201965332,"17":1.5452114343643188,"18":1.5806236267089844,"19":2.962921619415283,"20":0.9649493098258972,"21":-2.5088253021240234,"22":2.7279677391052246,"23":-0.36362311244010925,"24":0.8330034613609314,"25":2.4563546180725098,"26":1.5436149835586548,"27":-2.543166160583496,"28":0.19369879364967346,"29":0.29530414938926697,"30":-0.3733208477497101,"31":2.431999921798706,"32":0.2515392303466797,"33":2.2041046619415283,"34":2.822301149368286,"35":2.7677812576293945,"36":-3.4376745223999023,"37":1.501213550567627,"38":-0.019565174356102943,"39":4.738879680633545,"40":-2.622112274169922,"41":0.8282383680343628,"42":-0.2771124541759491,"43":-3.604191780090332,"44":-3.4438960552215576,"45":-0.7981666326522827,"46":0.10223047435283661,"47":-0.36760637164115906,"48":-1.5185526609420776,"49":0.30275511741638184,"50":2.5697202682495117,"51":-4.789177894592285,"52":1.0274674892425537,"53":0.49953386187553406,"54":-1.1343680620193481,"55":1.266920566558838,"56":2.651827335357666,"57":1.4636156558990479,"58":-2.0237579345703125,"59":-0.07425988465547562,"60":-2.8062334060668945,"61":2.465287923812866,"62":-1.8475428819656372,"63":-3.061211585998535,"64":-0.5535212755203247,"65":-1.600364089012146,"66":1.3510406017303467,"67":-0.10655460506677628,"68":1.8006490468978882,"69":2.5518085956573486,"70":2.091938018798828,"71":2.9065706729888916,"72":-1.0970101356506348,"73":0.2632291913032532,"74":0.5056950449943542,"75":-1.2774546146392822,"76":-5.995214462280273,"77":-1.2687941789627075,"78":0.31205567717552185,"79":-1.3807432651519775,"80":1.379530906677246,"81":-1.195174217224121,"82":1.6071847677230835,"83":0.10953063517808914,"84":0.6964421272277832,"85":-3.049590587615967,"86":-0.5759788751602173,"87":-2.0468051433563232,"88":-1.5050643682479858,"89":-0.12265518307685852,"90":-1.0752410888671875,"91":3.9273362159729004,"92":-0.9350121021270752,"93":1.2376750707626343,"94":2.8744566440582275,"95":-0.5100623965263367,"96":0.06584950536489487,"97":0.2202809900045395,"98":-1.3465056419372559,"99":2.242737293243408,"100":-2.5503475666046143,"101":0.4601733386516571,"102":0.8698750734329224,"103":-0.49210304021835327,"104":0.6488754153251648,"105":0.5443659424781799,"106":3.463548421859741,"107":2.4835903644561768,"108":-1.1352304220199585,"109":1.1491045951843262,"110":0.2522940933704376,"111":-3.362048625946045,"112":-4.891747951507568,"113":-2.997457504272461,"114":-0.7101171016693115,"115":4.493815898895264,"116":0.0713273286819458,"117":-1.065133810043335,"118":1.2253104448318481,"119":4.621615886688232,"120":2.8967690467834473,"121":-2.0938713550567627,"122":1.0608575344085693,"123":-1.0988277196884155,"124":0.7336755394935608,"125":1.8240079879760742,"126":3.6672208309173584,"127":-4.512497901916504,"128":2.164358615875244,"129":2.9573633670806885,"130":-2.319716453552246,"131":5.971195220947266,"132":1.643815279006958,"133":0.22070732712745667,"134":2.3568193912506104,"135":1.9572395086288452,"136":0.25772902369499207,"137":0.4116535782814026,"138":-2.044302225112915,"139":-3.55220103263855,"140":2.0265512466430664,"141":0.011132265441119671,"142":2.0829784870147705,"143":-2.512744903564453,"144":3.3930552005767822,"145":-2.26469349861145,"146":2.389389753341675,"147":-1.3039977550506592,"148":-0.42814901471138,"149":0.9101870656013489,"150":-1.8123441934585571,"151":-2.7104897499084473,"152":-0.39005160331726074,"153":-0.669590413570404,"154":-2.9040749073028564,"155":-1.4945812225341797,"156":-5.218928813934326,"157":-1.587491512298584,"158":0.7876023054122925,"159":-0.7853230237960815,"160":1.8422091007232666,"161":-2.7309179306030273,"162":1.6173747777938843,"163":1.9357596635818481,"164":0.5811691880226135,"165":-2.216522216796875,"166":0.40883758664131165,"167":0.47612830996513367,"168":-1.0774486064910889,"169":0.8479120135307312,"170":1.306410789489746,"171":-1.4329253435134888,"172":-1.3365230560302734,"173":-1.2419614791870117,"174":3.1107401847839355,"175":-0.7695106863975525,"176":-0.9209756851196289,"177":-0.04566284641623497,"178":-1.452829122543335,"179":2.314506769180298,"180":0.555889904499054,"181":-1.3391355276107788,"182":-0.028162917122244835,"183":0.6011348366737366,"184":2.069460153579712,"185":-1.976569652557373,"186":-1.4980388879776,"187":1.3805822134017944,"188":1.4481579065322876,"189":-0.2591801881790161,"190":-3.9445416927337646,"191":0.022353520616889,"192":1.4192736148834229,"193":0.18352563679218292,"194":-0.1972474455833435,"195":1.9535514116287231,"196":0.45283839106559753,"197":-0.9720199704170227,"198":-0.16714371740818024,"199":1.7564096450805664,"200":-0.6530149579048157,"201":0.03529255837202072,"202":0.44795867800712585,"203":0.9710165858268738,"204":-0.20589178800582886,"205":-0.5852222442626953,"206":-1.751213788986206,"207":2.136381149291992,"208":0.8977906107902527,"209":1.7477096319198608,"210":4.206845760345459,"211":2.8818657398223877,"212":0.8423925042152405,"213":-0.607820987701416,"214":1.2078641653060913,"215":0.6792632937431335,"216":1.6609686613082886,"217":-0.20902056992053986,"218":0.15766552090644836,"219":-1.6390385627746582,"220":-0.7255497574806213,"221":-0.9950429797172546,"222":-3.1654446125030518,"223":-1.156761884689331,"224":-0.150941401720047,"225":-1.4229600429534912,"226":-0.5829414129257202,"227":1.5033247470855713,"228":-1.8791650533676147,"229":-2.1560466289520264,"230":-0.8713346719741821,"231":-0.3589995205402374,"232":-0.8233695030212402,"233":2.24967098236084,"234":2.3502395153045654,"235":-2.0965218544006348,"236":1.2214168310165405,"237":2.900111198425293,"238":0.4980994760990143,"239":-0.2482389211654663,"240":1.2243722677230835,"241":-1.921921968460083,"242":1.572932243347168,"243":-0.988868236541748,"244":0.9634684920310974,"245":-0.8302599787712097,"246":1.6847883462905884,"247":-1.4758442640304565,"248":1.114426612854004,"249":0.0741066113114357,"250":-0.0014277416048571467,"251":0.7528300881385803,"252":1.2869056463241577,"253":-0.3866685628890991,"254":2.675985336303711,"255":-0.3351270258426666,"256":1.2532422542572021,"257":1.6912869215011597,"258":-3.2031404972076416,"259":0.5787198543548584,"260":-3.364192008972168,"261":4.0827317237854,"262":-3.4242281913757324,"263":-0.7035155892372131,"264":-1.8265798091888428,"265":0.7671835422515869,"266":-2.293248176574707,"267":0.6806049942970276,"268":0.5373475551605225,"269":-2.537116050720215,"270":0.9730980396270752,"271":-3.7226905822753906,"272":-0.38899606466293335,"273":-2.1848092079162598,"274":1.6233665943145752,"275":-0.250623494386673,"276":2.2823679447174072,"277":0.6834436655044556,"278":0.21715328097343445,"279":-0.9756832718849182,"280":3.4461681842803955,"281":-0.8090003132820129,"282":2.1889302730560303,"283":2.6519227027893066,"284":4.671114921569824,"285":2.6796536445617676,"286":-0.05672556906938553,"287":0.8158257007598877,"288":1.4407343864440918,"289":3.3614084720611572,"290":-4.901337623596191,"291":1.9829812049865723,"292":1.3535023927688599,"293":0.547579824924469,"294":1.0901517868041992,"295":2.011329412460327,"296":-4.496457099914551,"297":0.4052802324295044,"298":-2.6853084564208984,"299":-0.9952109456062317,"300":-3.115515947341919,"301":-0.5271703004837036,"302":-0.8522627353668213,"303":-1.73186457157135,"304":-2.7545859813690186,"305":0.1872701495885849,"306":3.732269763946533,"307":0.7941046953201294,"308":0.016996029764413834,"309":0.058059561997652054,"310":-0.3982226252555847,"311":-2.5410776138305664,"312":-0.5732380747795105,"313":-0.12057094275951385,"314":-1.146466612815857,"315":-1.3758608102798462,"316":0.5449270606040955,"317":-0.028035573661327362,"318":-2.0677742958068848,"319":0.11630669981241226,"320":1.0407421588897705,"321":-3.6458728313446045,"322":-3.0031275749206543,"323":-0.6169337034225464,"324":1.7907507419586182,"325":-0.40364837646484375,"326":-6.553182601928711,"327":2.1436851024627686,"328":1.552557110786438,"329":-1.8387985229492188,"330":-3.4790198802948,"331":2.164562940597534,"332":-2.1930980682373047,"333":-4.55028772354126,"334":-2.0170066356658936,"335":-2.2680227756500244,"336":2.5802319049835205,"337":1.1327985525131226,"338":1.120732307434082,"339":0.6069700717926025,"340":2.5072195529937744,"341":-2.47114634513855,"342":0.2538119852542877,"343":0.17303502559661865,"344":3.4826600551605225,"345":0.6655646562576294,"346":-0.09109091758728027,"347":-0.22923371195793152,"348":-0.9363511800765991,"349":2.699812889099121,"350":1.620458960533142,"351":-2.360954999923706,"352":1.0157880783081055,"353":1.2894606590270996,"354":-0.07625431567430496,"355":0.027065329253673553,"356":0.2141861915588379,"357":0.18316476047039032,"358":1.302565097808838,"359":-0.12134651094675064,"360":1.233124017715454,"361":0.2042938619852066,"362":0.39117196202278137,"363":3.7771947383880615,"364":0.11137527227401733,"365":-0.28126367926597595,"366":0.30699193477630615,"367":0.4571453332901001,"368":1.0787683725357056,"369":-4.268864631652832,"370":1.8620339632034302,"371":-1.4832439422607422,"372":0.14370737969875336,"373":0.7300888299942017,"374":2.075188636779785,"375":0.6531026363372803,"376":0.9103816151618958,"377":0.1486547440290451,"378":1.059141755104065,"379":-0.06115853413939476,"380":-4.8704400062561035,"381":3.177896738052368,"382":-0.46651190519332886,"383":-1.2243468761444092,"384":-2.399216890335083,"385":1.4641720056533813,"386":3.3667407035827637,"387":-2.950925827026367,"388":-1.16192626953125,"389":-1.0107569694519043,"390":-1.4688186645507812,"391":-2.7077507972717285,"392":-1.3579483032226562,"393":2.408043622970581,"394":-1.2643468379974365,"395":1.2967257499694824,"396":0.46920379996299744,"397":2.1483476161956787,"398":-3.9743847846984863,"399":-0.9893800020217896}},"inputBias":{"rows":20,"columns":1,"weights":{"0":-1.7743544578552246,"1":1.487460970878601,"2":-0.2423669695854187,"3":-0.31761181354522705,"4":-1.3127062320709229,"5":-2.09279727935791,"6":-1.602498173713684,"7":-0.5422780513763428,"8":-0.04141845926642418,"9":0.31773629784584045,"10":1.5696964263916016,"11":0.044512659311294556,"12":-0.18873193860054016,"13":-0.6180189251899719,"14":-1.4228148460388184,"15":0.18783028423786163,"16":-0.34146198630332947,"17":-0.2092917263507843,"18":-3.3964035511016846,"19":1.1922982931137085}},"forgetMatrix":{"rows":20,"columns":25,"weights":{"0":0.40766170620918274,"1":2.444223165512085,"2":-1.1201444864273071,"3":-3.0357279777526855,"4":-0.6475411653518677,"5":-1.9791768789291382,"6":0.485062837600708,"7":-2.294208526611328,"8":-0.5808098912239075,"9":0.4767037630081177,"10":-0.4384491443634033,"11":0.8532841205596924,"12":-0.43509989976882935,"13":-2.449244260787964,"14":-2.427326202392578,"15":-1.2491503953933716,"16":-0.7062063813209534,"17":-0.061719056218862534,"18":2.8941445350646973,"19":0.5306599140167236,"20":0.9110394716262817,"21":0.7844446301460266,"22":0.23433227837085724,"23":-0.9865274429321289,"24":2.010701894760132,"25":-2.2516238689422607,"26":0.6551709175109863,"27":-0.7393996119499207,"28":-3.1461856365203857,"29":1.55061674118042,"30":1.6661498546600342,"31":2.8628814220428467,"32":-0.8864026665687561,"33":2.1979362964630127,"34":-2.037259101867676,"35":1.6446080207824707,"36":0.2682294547557831,"37":-2.19938588142395,"38":-3.086115837097168,"39":1.7883224487304688,"40":2.40687894821167,"41":-1.7031517028808594,"42":1.366305947303772,"43":1.7106022834777832,"44":-1.2895278930664062,"45":-2.9320144653320312,"46":0.0182043444365263,"47":-1.0182007551193237,"48":-0.35980188846588135,"49":2.1649715900421143,"50":0.091693215072155,"51":0.8958561420440674,"52":-2.561455488204956,"53":-0.6372188925743103,"54":-1.2663170099258423,"55":1.153235673904419,"56":1.0586440563201904,"57":-2.262188196182251,"58":-0.6192092895507812,"59":-1.052046537399292,"60":-0.7757471799850464,"61":-3.6477930545806885,"62":-1.1272011995315552,"63":-1.914117693901062,"64":-0.14136390388011932,"65":-0.4279710352420807,"66":-2.752073049545288,"67":2.7072486877441406,"68":0.7231783866882324,"69":-1.9093552827835083,"70":-0.5121843218803406,"71":-0.9999785423278809,"72":-0.6826022267341614,"73":-0.4470982849597931,"74":0.9432380795478821,"75":-1.113845705986023,"76":-2.946708917617798,"77":2.8670668601989746,"78":1.2723643779754639,"79":-0.6974610686302185,"80":0.41948753595352173,"81":-2.012871742248535,"82":2.3809049129486084,"83":-2.146348476409912,"84":1.5929242372512817,"85":-0.14178748428821564,"86":-0.9831095337867737,"87":0.8127493858337402,"88":1.5487240552902222,"89":-0.15507063269615173,"90":1.2839950323104858,"91":1.1126363277435303,"92":0.36938464641571045,"93":0.051364466547966,"94":-0.4575232267379761,"95":-0.18809519708156586,"96":-1.518742322921753,"97":-1.1991064548492432,"98":-0.7310479879379272,"99":-0.59310382604599,"100":0.8603286147117615,"101":-2.8884665966033936,"102":0.7994557023048401,"103":0.5366708040237427,"104":2.3566267490386963,"105":1.078618049621582,"106":-0.6835988163948059,"107":0.5010803937911987,"108":0.7065755128860474,"109":0.2257545292377472,"110":-0.24986281991004944,"111":1.7134075164794922,"112":0.01808525063097477,"113":0.9008151292800903,"114":-0.49972760677337646,"115":1.3899117708206177,"116":-0.28708767890930176,"117":-2.4730074405670166,"118":-0.09249760955572128,"119":0.044747527688741684,"120":2.34126615524292,"121":-0.2088172435760498,"122":-0.4849872291088104,"123":0.7517328858375549,"124":3.1045119762420654,"125":-1.3213748931884766,"126":-1.668162226676941,"127":0.355040967464447,"128":-1.0691572427749634,"129":0.1407966911792755,"130":1.3578147888183594,"131":-0.9926863312721252,"132":0.8655964136123657,"133":-3.9748830795288086,"134":0.6891583204269409,"135":-1.183137059211731,"136":-0.5537480711936951,"137":-1.17729651927948,"138":0.8119869232177734,"139":0.17060744762420654,"140":1.5243840217590332,"141":1.0109539031982422,"142":-1.1744794845581055,"143":1.1006304025650024,"144":1.5399249792099,"145":0.0959540382027626,"146":0.2739180028438568,"147":-0.7433688044548035,"148":0.5241450667381287,"149":0.3253014087677002,"150":2.0820653438568115,"151":0.7807783484458923,"152":1.7338428497314453,"153":-0.3974398970603943,"154":1.4072693586349487,"155":2.4780430793762207,"156":3.843137502670288,"157":0.02946590632200241,"158":-1.5141574144363403,"159":-0.8382556438446045,"160":-0.38028380274772644,"161":1.1171494722366333,"162":0.6419393420219421,"163":0.38428208231925964,"164":3.908902645111084,"165":1.068572759628296,"166":-0.7618326544761658,"167":1.312256932258606,"168":0.1334325522184372,"169":-0.477375864982605,"170":-1.2863353490829468,"171":-0.3187999725341797,"172":2.6695501804351807,"173":-0.6402547955513,"174":3.112969398498535,"175":1.4456322193145752,"176":0.6179571747779846,"177":-1.0619308948516846,"178":1.6821964979171753,"179":0.9957111477851868,"180":0.8620243072509766,"181":2.95513653755188,"182":-2.415508508682251,"183":-1.868607997894287,"184":-3.601013660430908,"185":-2.216817855834961,"186":-0.5993754267692566,"187":-3.1961700916290283,"188":-0.44737666845321655,"189":0.9782444834709167,"190":-1.4233567714691162,"191":-0.7897768616676331,"192":2.1375722885131836,"193":0.16504262387752533,"194":-1.2971583604812622,"195":0.6192697286605835,"196":-1.3201472759246826,"197":-0.6267582178115845,"198":-0.7618451714515686,"199":-0.36657148599624634,"200":1.5537370443344116,"201":1.1338413953781128,"202":1.4205135107040405,"203":0.0013008638052269816,"204":0.4227467477321625,"205":-0.03223620355129242,"206":-2.3484528064727783,"207":-1.9194022417068481,"208":1.2449634075164795,"209":1.3038113117218018,"210":-0.5945004820823669,"211":1.24032461643219,"212":0.794194757938385,"213":0.6229164004325867,"214":0.5730989575386047,"215":0.6790269017219543,"216":1.0218621492385864,"217":-0.9987156391143799,"218":0.22184057533740997,"219":1.2480700016021729,"220":1.3136142492294312,"221":0.8610545992851257,"222":1.825899600982666,"223":-1.4099090099334717,"224":0.6326298713684082,"225":-0.7923360466957092,"226":-3.194288969039917,"227":-1.0769119262695312,"228":-0.18502631783485413,"229":1.4521898031234741,"230":3.3087635040283203,"231":0.9752829670906067,"232":-0.06566012650728226,"233":-1.161170482635498,"234":-1.4603886604309082,"235":0.04561162739992142,"236":-0.5604851245880127,"237":-1.045021653175354,"238":-2.297030448913574,"239":1.845210075378418,"240":2.324188232421875,"241":0.32159024477005005,"242":-0.3568233251571655,"243":1.3186357021331787,"244":-0.10694840550422668,"245":0.06860724091529846,"246":1.4247373342514038,"247":1.3764680624008179,"248":2.403399705886841,"249":-0.32066014409065247,"250":1.911289930343628,"251":0.33681434392929077,"252":-0.08866936713457108,"253":2.569025754928589,"254":0.3855993151664734,"255":0.45828044414520264,"256":1.0116740465164185,"257":-1.0963462591171265,"258":4.388327121734619,"259":-1.6937108039855957,"260":-0.6501309275627136,"261":0.697209358215332,"262":-0.07922280579805374,"263":0.8366010785102844,"264":2.2693521976470947,"265":0.2413121908903122,"266":-2.123331308364868,"267":0.6899144649505615,"268":-2.413203001022339,"269":1.1512264013290405,"270":-0.9360966086387634,"271":-1.5730079412460327,"272":-0.2665492296218872,"273":0.8053290843963623,"274":0.6848321557044983,"275":0.6248542666435242,"276":-0.06272433698177338,"277":-2.1609673500061035,"278":0.33645254373550415,"279":1.0424504280090332,"280":1.362512230873108,"281":0.2823617160320282,"282":-0.7320717573165894,"283":-0.28821051120758057,"284":-1.2064311504364014,"285":-0.1712459921836853,"286":-4.641517162322998,"287":0.905860424041748,"288":1.1579556465148926,"289":1.4545063972473145,"290":3.9538445472717285,"291":-2.2483932971954346,"292":1.8484225273132324,"293":0.34119608998298645,"294":-1.0029985904693604,"295":-0.6820178031921387,"296":-1.083004117012024,"297":0.4628659784793854,"298":-0.7601901292800903,"299":2.3255341053009033,"300":0.7083496451377869,"301":-0.6524080038070679,"302":1.527593731880188,"303":2.19344425201416,"304":2.1980397701263428,"305":0.7476599216461182,"306":1.0409713983535767,"307":1.2660856246948242,"308":0.8455169796943665,"309":-2.079021692276001,"310":-2.0891635417938232,"311":1.5696353912353516,"312":-1.018874168395996,"313":0.3318960964679718,"314":-0.2386915236711502,"315":-0.032734911888837814,"316":0.7381302714347839,"317":-0.5762963891029358,"318":-0.03143060579895973,"319":0.25884494185447693,"320":0.26961371302604675,"321":0.44649213552474976,"322":-0.6445049047470093,"323":1.7671754360198975,"324":1.2020655870437622,"325":-1.3217809200286865,"326":-1.7126579284667969,"327":-1.5674954652786255,"328":-2.1484503746032715,"329":1.261179804801941,"330":-0.5331743955612183,"331":-1.6951110363006592,"332":1.5123603343963623,"333":1.6361898183822632,"334":1.787520408630371,"335":2.9299099445343018,"336":-1.787095308303833,"337":0.6462501883506775,"338":-2.3672797679901123,"339":0.4504389762878418,"340":0.2198745161294937,"341":-0.3618832230567932,"342":-1.7009122371673584,"343":-0.40225860476493835,"344":3.0391552448272705,"345":-0.11504554003477097,"346":-1.9128884077072144,"347":-1.3848538398742676,"348":-0.6531630754470825,"349":0.0512259341776371,"350":-0.8678979277610779,"351":1.1225411891937256,"352":-0.5415114164352417,"353":-2.5365898609161377,"354":-1.091350793838501,"355":-0.38396114110946655,"356":0.07095026969909668,"357":-0.8192522525787354,"358":-0.355442613363266,"359":-0.49682825803756714,"360":1.7481449842453003,"361":-2.470423936843872,"362":-1.4587267637252808,"363":-1.3132563829421997,"364":0.7527617812156677,"365":-0.8087695837020874,"366":-1.576724648475647,"367":-0.400237113237381,"368":2.0212841033935547,"369":2.581881046295166,"370":-0.7711653709411621,"371":-2.60443377494812,"372":2.1549363136291504,"373":-1.187301754951477,"374":3.5320637226104736,"375":2.094881772994995,"376":4.23198127746582,"377":-0.11010564118623734,"378":0.5345049500465393,"379":-1.886283278465271,"380":-0.06764660775661469,"381":2.142186164855957,"382":0.8921241760253906,"383":3.8600242137908936,"384":1.128218173980713,"385":1.7511183023452759,"386":-0.8152762055397034,"387":0.11006437242031097,"388":2.4476914405822754,"389":2.15775465965271,"390":-0.44307318329811096,"391":-0.048000533133745193,"392":1.750362515449524,"393":0.7957851886749268,"394":-0.20299138128757477,"395":-1.8686881065368652,"396":-1.7027817964553833,"397":2.0336546897888184,"398":-1.628055214881897,"399":3.948451280593872,"400":1.6889147758483887,"401":1.2840946912765503,"402":-3.1953985691070557,"403":1.148210048675537,"404":-0.26267489790916443,"405":-0.2586238384246826,"406":3.365501880645752,"407":0.46348172426223755,"408":0.038966234773397446,"409":0.4046829044818878,"410":-0.2339484989643097,"411":2.40516996383667,"412":1.068509578704834,"413":1.575567364692688,"414":-0.5018548369407654,"415":0.7507548332214355,"416":1.7369568347930908,"417":3.1599063873291016,"418":-0.6799858808517456,"419":-1.9257091283798218,"420":1.2109171152114868,"421":2.099167585372925,"422":0.28171753883361816,"423":0.07567813247442245,"424":-1.49430513381958,"425":2.32198429107666,"426":1.3906792402267456,"427":-0.9649640917778015,"428":-0.07040335983037949,"429":1.9996651411056519,"430":1.5908777713775635,"431":-1.7473769187927246,"432":0.24685758352279663,"433":0.7083649039268494,"434":-1.3863942623138428,"435":-1.609478235244751,"436":1.1684107780456543,"437":3.1078760623931885,"438":-3.0648796558380127,"439":-1.6198797225952148,"440":-0.7084299921989441,"441":-2.0265674591064453,"442":-1.4392811059951782,"443":-2.611614465713501,"444":0.3618350327014923,"445":4.642007350921631,"446":-1.1372835636138916,"447":3.0513339042663574,"448":0.49888432025909424,"449":-0.424559086561203,"450":-2.0292158126831055,"451":-0.23107962310314178,"452":-0.16290530562400818,"453":-0.9041957259178162,"454":-1.8555586338043213,"455":-1.0497843027114868,"456":-1.2957457304000854,"457":1.8514044284820557,"458":-0.46342307329177856,"459":0.9138224720954895,"460":-0.000935685879085213,"461":0.1503053903579712,"462":0.11838632822036743,"463":-1.1322569847106934,"464":-0.6978524327278137,"465":-0.8168537020683289,"466":-0.5626838803291321,"467":-1.4927483797073364,"468":0.17129632830619812,"469":3.0873308181762695,"470":-1.281658411026001,"471":-0.7217284440994263,"472":1.0499802827835083,"473":-1.6600996255874634,"474":-0.715006411075592,"475":-1.0142507553100586,"476":-2.0679826736450195,"477":-0.8977878093719482,"478":-2.666299343109131,"479":-0.6735190153121948,"480":0.6595444679260254,"481":-2.095885992050171,"482":-0.7975710034370422,"483":-1.2324682474136353,"484":0.9107753038406372,"485":2.3923110961914062,"486":-4.351012706756592,"487":-1.3612221479415894,"488":-0.6872065663337708,"489":-0.014874739572405815,"490":0.33660027384757996,"491":-0.9798458218574524,"492":1.5698517560958862,"493":0.19586332142353058,"494":1.8009165525436401,"495":-0.15026958286762238,"496":-0.4694938063621521,"497":-1.0636355876922607,"498":0.1813807189464569,"499":0.8644852638244629}},"forgetHidden":{"rows":20,"columns":20,"weights":{"0":-2.9423346519470215,"1":-1.368648648262024,"2":1.1829521656036377,"3":0.24971865117549896,"4":-0.21500669419765472,"5":1.1336300373077393,"6":0.1834491342306137,"7":1.9244053363800049,"8":1.5409770011901855,"9":1.4961094856262207,"10":0.2604525089263916,"11":-0.4679725468158722,"12":1.4919687509536743,"13":-0.4794083535671234,"14":-0.6527928113937378,"15":-0.5965721607208252,"16":-0.2214587777853012,"17":-1.653591275215149,"18":2.270413398742676,"19":-0.5536368489265442,"20":1.687402606010437,"21":-1.8489092588424683,"22":0.135477215051651,"23":-2.7007641792297363,"24":1.0561031103134155,"25":0.5581095814704895,"26":0.5154579281806946,"27":-0.9713234305381775,"28":2.5184743404388428,"29":3.7479772567749023,"30":-0.9682557582855225,"31":2.3703930377960205,"32":1.147409200668335,"33":0.3862963616847992,"34":-2.185201406478882,"35":-3.0327601432800293,"36":-3.12839937210083,"37":0.5308778285980225,"38":-1.1850829124450684,"39":-2.759528160095215,"40":-0.8764835596084595,"41":0.3074980676174164,"42":-1.5109606981277466,"43":-0.31877803802490234,"44":-0.9737691283226013,"45":-1.419266939163208,"46":0.2769036293029785,"47":2.4998981952667236,"48":-0.4946482479572296,"49":0.009269154630601406,"50":-0.6270862221717834,"51":-0.2515730559825897,"52":0.685348629951477,"53":-0.022078098729252815,"54":1.0139161348342896,"55":-0.5693356394767761,"56":-0.216958686709404,"57":-0.8087116479873657,"58":0.2880452871322632,"59":0.11839637160301208,"60":-2.2219202518463135,"61":1.1014493703842163,"62":-1.7535021305084229,"63":0.12754592299461365,"64":-0.24350827932357788,"65":-0.8841727375984192,"66":0.5465385317802429,"67":-0.8563224673271179,"68":-0.06900162994861603,"69":-1.5134483575820923,"70":0.023828458040952682,"71":-1.1844104528427124,"72":-2.1113131046295166,"73":-0.03853251039981842,"74":0.8413820862770081,"75":-0.5546512603759766,"76":0.7134424448013306,"77":-0.6147017478942871,"78":-0.7661627531051636,"79":1.4597944021224976,"80":0.9447331428527832,"81":-0.6166168451309204,"82":0.025834158062934875,"83":0.5188600420951843,"84":-1.4145197868347168,"85":-1.033217430114746,"86":0.18387818336486816,"87":-2.133669137954712,"88":0.4439566433429718,"89":-1.8247874975204468,"90":-0.15444090962409973,"91":0.1777673214673996,"92":-0.2116449624300003,"93":0.32642868161201477,"94":0.2715083062648773,"95":-0.8261503577232361,"96":-1.6245609521865845,"97":1.7583757638931274,"98":0.7818523645401001,"99":-0.5873008966445923,"100":-0.6094964146614075,"101":-0.012487965635955334,"102":-1.807019829750061,"103":1.9939897060394287,"104":-1.6178706884384155,"105":2.0014524459838867,"106":0.558198869228363,"107":0.6997730135917664,"108":-1.9803814888000488,"109":-1.4561562538146973,"110":1.1978590488433838,"111":-1.5528391599655151,"112":-1.7271100282669067,"113":-0.26398688554763794,"114":0.9643966555595398,"115":-0.32554590702056885,"116":1.7127150297164917,"117":-2.4366722106933594,"118":1.4777493476867676,"119":-0.14884613454341888,"120":0.5044640898704529,"121":0.7103518843650818,"122":1.5207252502441406,"123":-0.07872381806373596,"124":0.7987661957740784,"125":0.9480868577957153,"126":1.89859938621521,"127":-0.5189863443374634,"128":-1.67141592502594,"129":0.04724160581827164,"130":1.1619001626968384,"131":-0.32772234082221985,"132":-2.1067147254943848,"133":-2.2507739067077637,"134":-1.6406794786453247,"135":0.11603156477212906,"136":-0.6284216046333313,"137":0.05451808124780655,"138":-2.0840864181518555,"139":-0.2901695966720581,"140":0.4733009338378906,"141":-0.20846593379974365,"142":0.4424037039279938,"143":1.6031163930892944,"144":1.106248378753662,"145":1.2688226699829102,"146":-1.1892025470733643,"147":-0.3942659795284271,"148":-1.6282604932785034,"149":-1.8278461694717407,"150":-0.3316967785358429,"151":-1.1532115936279297,"152":-0.5196992754936218,"153":-0.22817468643188477,"154":0.11629112809896469,"155":1.197277307510376,"156":1.980435848236084,"157":-2.3938400745391846,"158":0.6021367907524109,"159":-1.9191350936889648,"160":0.43619611859321594,"161":-2.6698248386383057,"162":2.2047529220581055,"163":2.2703638076782227,"164":-1.4431182146072388,"165":1.1166385412216187,"166":-4.6461615562438965,"167":0.26133131980895996,"168":0.23552575707435608,"169":1.6499030590057373,"170":-3.10955810546875,"171":-0.9963164329528809,"172":1.8306697607040405,"173":-1.425934910774231,"174":-2.7475881576538086,"175":-1.260643482208252,"176":2.664942741394043,"177":1.22212553024292,"178":-0.21249473094940186,"179":2.892948627471924,"180":-1.5639097690582275,"181":-0.7937347292900085,"182":-1.3106609582901,"183":-0.16369962692260742,"184":-3.089263439178467,"185":0.19021791219711304,"186":0.0011119908886030316,"187":0.24667780101299286,"188":-1.6967649459838867,"189":-1.314529538154602,"190":1.6890511512756348,"191":-0.9756361842155457,"192":-0.5051042437553406,"193":-0.6368071436882019,"194":0.8638916015625,"195":0.37688398361206055,"196":0.7960718870162964,"197":-2.4792702198028564,"198":-1.4899632930755615,"199":0.12366945296525955,"200":0.9731643199920654,"201":0.12873974442481995,"202":-2.4172303676605225,"203":-0.5795629620552063,"204":2.1652181148529053,"205":0.7912384867668152,"206":-0.7731630802154541,"207":-1.1268190145492554,"208":1.7124638557434082,"209":4.960968494415283,"210":-7.498636722564697,"211":2.365474224090576,"212":1.2211970090866089,"213":2.930647373199463,"214":4.283318996429443,"215":1.5722471475601196,"216":-0.22577372193336487,"217":3.8034603595733643,"218":-0.662409782409668,"219":2.553251266479492,"220":0.042804617434740067,"221":-1.3118189573287964,"222":0.49677956104278564,"223":-0.8219944834709167,"224":0.2508524954319,"225":0.011939446441829205,"226":2.1865670680999756,"227":-1.4603278636932373,"228":0.09262514859437943,"229":-0.1908433586359024,"230":0.9759708046913147,"231":1.200058937072754,"232":-0.9095606207847595,"233":3.18759822845459,"234":1.0592046976089478,"235":0.8337744474411011,"236":-0.8539020419120789,"237":0.6406355500221252,"238":-2.2839083671569824,"239":1.7955900430679321,"240":0.20314806699752808,"241":-1.7012720108032227,"242":0.7341068983078003,"243":1.0174758434295654,"244":0.37040936946868896,"245":0.028703445568680763,"246":-1.895611047744751,"247":0.487069308757782,"248":1.4468306303024292,"249":-1.0660068988800049,"250":-0.6531407833099365,"251":-0.6224899888038635,"252":1.2350894212722778,"253":2.0188300609588623,"254":0.7567895650863647,"255":-0.16212189197540283,"256":1.0362367630004883,"257":-0.18496489524841309,"258":0.17155295610427856,"259":1.0883818864822388,"260":-0.266258180141449,"261":-0.004687038250267506,"262":-0.8367394208908081,"263":3.3268022537231445,"264":-0.2592160701751709,"265":1.8931491374969482,"266":-3.603205680847168,"267":0.8726356625556946,"268":0.6406083703041077,"269":4.344313144683838,"270":3.5827629566192627,"271":-1.7178188562393188,"272":0.5598734617233276,"273":-1.7130037546157837,"274":0.317493736743927,"275":-1.0963504314422607,"276":1.9841951131820679,"277":0.38694146275520325,"278":-2.4972968101501465,"279":0.5431725382804871,"280":-2.968527317047119,"281":-1.447357416152954,"282":0.5732553005218506,"283":1.6697454452514648,"284":-2.811793804168701,"285":1.4932925701141357,"286":-1.2931866645812988,"287":-0.7518213391304016,"288":-0.22965984046459198,"289":0.052563685923814774,"290":3.112255811691284,"291":-1.6580411195755005,"292":0.029833361506462097,"293":-2.576258420944214,"294":-0.4322914183139801,"295":0.7205107808113098,"296":0.3022780120372772,"297":-0.7237468957901001,"298":-0.011527635157108307,"299":0.7347574234008789,"300":3.3701255321502686,"301":-0.6110524535179138,"302":1.3286830186843872,"303":-0.5521394610404968,"304":0.1016877070069313,"305":0.6854758262634277,"306":1.4105174541473389,"307":-0.15378734469413757,"308":-0.6291234493255615,"309":-0.368827223777771,"310":1.866901159286499,"311":1.3345719575881958,"312":0.10603178292512894,"313":-2.09421968460083,"314":0.30748695135116577,"315":-2.043011426925659,"316":-6.474826812744141,"317":-1.7520995140075684,"318":-2.233430862426758,"319":4.419950008392334,"320":-1.8532556295394897,"321":-1.7428160905838013,"322":-2.729905366897583,"323":0.5256279110908508,"324":-0.2770957946777344,"325":-0.7860695719718933,"326":-2.644115447998047,"327":2.492607831954956,"328":0.7827122807502747,"329":0.15022329986095428,"330":-1.9264017343521118,"331":-0.9725586771965027,"332":1.2375514507293701,"333":-0.06804243475198746,"334":0.5886319875717163,"335":-3.87988018989563,"336":-0.3016358017921448,"337":1.536364197731018,"338":1.7540045976638794,"339":-2.821955680847168,"340":-0.9198126196861267,"341":-0.8348098993301392,"342":3.0411198139190674,"343":0.6203966736793518,"344":3.3941996097564697,"345":2.627182722091675,"346":-0.44420409202575684,"347":0.5242403149604797,"348":5.1043243408203125,"349":1.6250996589660645,"350":-0.8046251535415649,"351":-0.5821481943130493,"352":4.332773685455322,"353":0.978740930557251,"354":-1.0505404472351074,"355":2.845041036605835,"356":0.8342230916023254,"357":-1.2127742767333984,"358":1.0584872961044312,"359":-0.1478336602449417,"360":0.03840938210487366,"361":-0.9188901782035828,"362":0.8008034229278564,"363":1.7221143245697021,"364":0.4185612201690674,"365":1.830437421798706,"366":-1.6683330535888672,"367":0.08536715805530548,"368":-0.09507157653570175,"369":-0.5769954919815063,"370":1.2765207290649414,"371":0.15216904878616333,"372":-0.547458827495575,"373":1.0411300659179688,"374":1.263565182685852,"375":1.5305542945861816,"376":-0.35829007625579834,"377":-0.26763153076171875,"378":0.02720131352543831,"379":2.6787543296813965,"380":-0.4752844274044037,"381":-0.9685302376747131,"382":0.30130380392074585,"383":2.5977251529693604,"384":-2.0709381103515625,"385":0.5110204219818115,"386":-1.846564769744873,"387":2.3798978328704834,"388":-1.8289145231246948,"389":-0.5404286980628967,"390":0.4149989187717438,"391":-1.680673599243164,"392":0.7856337428092957,"393":-2.165083408355713,"394":2.501920223236084,"395":-0.21864210069179535,"396":3.712520122528076,"397":-2.231895923614502,"398":2.4302406311035156,"399":0.8704748153686523}},"forgetBias":{"rows":20,"columns":1,"weights":{"0":0,"1":0,"2":0,"3":0,"4":0,"5":0,"6":0,"7":0,"8":0,"9":0,"10":0,"11":0,"12":0,"13":0,"14":0,"15":0,"16":0,"17":0,"18":0,"19":0}},"outputMatrix":{"rows":20,"columns":25,"weights":{"0":-0.6008874177932739,"1":-0.6208482384681702,"2":-0.4074288606643677,"3":-0.21248923242092133,"4":1.5007859468460083,"5":-0.9226394295692444,"6":-0.947358250617981,"7":0.8458597660064697,"8":0.5954048037528992,"9":0.629673182964325,"10":1.2830983400344849,"11":0.6935511231422424,"12":1.8681015968322754,"13":-0.296806663274765,"14":-2.394787549972534,"15":-1.159127116203308,"16":0.7618044018745422,"17":-3.221698760986328,"18":-2.0148141384124756,"19":0.3191448748111725,"20":4.09768009185791,"21":2.204730272293091,"22":1.269379734992981,"23":2.476322889328003,"24":-1.2810094356536865,"25":3.1521801948547363,"26":2.170283794403076,"27":1.1548727750778198,"28":0.9099632501602173,"29":1.4369380474090576,"30":1.8757778406143188,"31":1.7062029838562012,"32":-0.3113728165626526,"33":2.132423162460327,"34":-2.6399590969085693,"35":-1.3781983852386475,"36":1.3447284698486328,"37":-3.268181324005127,"38":0.14331547915935516,"39":0.8575531840324402,"40":-0.8542366027832031,"41":2.264423370361328,"42":2.970027446746826,"43":1.1223676204681396,"44":-0.6521944999694824,"45":-0.7742204666137695,"46":0.5222928524017334,"47":1.6192682981491089,"48":-1.5982931852340698,"49":-0.6517466902732849,"50":-0.17565451562404633,"51":-0.5894224047660828,"52":-2.58927321434021,"53":-0.7078680396080017,"54":-1.262016773223877,"55":-1.2713640928268433,"56":-5.6281657218933105,"57":0.20547422766685486,"58":0.32199034094810486,"59":0.5843286514282227,"60":1.2076818943023682,"61":-2.7621824741363525,"62":1.2440794706344604,"63":-1.5702611207962036,"64":-0.09440638870000839,"65":0.0769939124584198,"66":1.1837577819824219,"67":-2.3300154209136963,"68":0.1170797273516655,"69":0.796891987323761,"70":3.1816587448120117,"71":1.4285835027694702,"72":-1.5638900995254517,"73":1.7786285877227783,"74":-3.476278066635132,"75":-0.0853726863861084,"76":-0.13549388945102692,"77":-3.30423903465271,"78":-1.0597003698349,"79":0.5929205417633057,"80":0.09545083343982697,"81":1.3705581426620483,"82":-3.5561060905456543,"83":3.1607818603515625,"84":0.6025192737579346,"85":-3.8118038177490234,"86":-0.32986119389533997,"87":-4.158381938934326,"88":0.025810005143284798,"89":0.23647327721118927,"90":-0.576409101486206,"91":-3.665100336074829,"92":0.8077035546302795,"93":0.07676859200000763,"94":0.753048837184906,"95":-1.2756435871124268,"96":-0.07156424224376678,"97":-1.146432876586914,"98":1.6111477613449097,"99":1.6077227592468262,"100":0.7984423041343689,"101":1.922814130783081,"102":-1.6174720525741577,"103":-0.9286871552467346,"104":-1.3203561305999756,"105":-0.07281272858381271,"106":-2.091636896133423,"107":-0.380340576171875,"108":0.6017228364944458,"109":-1.2194020748138428,"110":3.181212902069092,"111":1.1803127527236938,"112":0.5779166221618652,"113":-0.6685592532157898,"114":0.7231137156486511,"115":0.03372402489185333,"116":-0.9514294266700745,"117":-3.9581778049468994,"118":2.740903854370117,"119":2.635625123977661,"120":-1.4323689937591553,"121":0.4177679717540741,"122":1.7488099336624146,"123":-1.3637672662734985,"124":1.9074220657348633,"125":-0.9127570986747742,"126":0.7551244497299194,"127":0.9019820690155029,"128":0.8705922365188599,"129":-1.427287220954895,"130":-1.983027458190918,"131":0.1417156606912613,"132":1.4095584154129028,"133":2.338951349258423,"134":2.424288511276245,"135":0.15936483442783356,"136":-2.918771266937256,"137":0.0628744587302208,"138":3.3133175373077393,"139":-0.900885820388794,"140":0.3735095262527466,"141":0.329787939786911,"142":3.753495454788208,"143":2.3450138568878174,"144":1.6637924909591675,"145":-2.3886497020721436,"146":0.7539205551147461,"147":1.3327081203460693,"148":-1.8299533128738403,"149":-1.6716418266296387,"150":-5.0211663246154785,"151":-2.087667942047119,"152":-1.5908323526382446,"153":-0.031493738293647766,"154":0.8666749000549316,"155":-0.2080601453781128,"156":-1.632554531097412,"157":1.240744709968567,"158":0.12366113066673279,"159":-2.3198487758636475,"160":0.06814312934875488,"161":-5.407495498657227,"162":0.47066977620124817,"163":-0.5281307101249695,"164":1.2040289640426636,"165":1.0917390584945679,"166":-2.0893306732177734,"167":-1.1681828498840332,"168":0.7861613631248474,"169":1.3510472774505615,"170":-1.6890588998794556,"171":-2.4003829956054688,"172":-1.1382601261138916,"173":2.207404851913452,"174":-2.656010866165161,"175":-2.178981304168701,"176":2.1728618144989014,"177":-0.23620696365833282,"178":-0.5273126363754272,"179":-1.7149940729141235,"180":0.1038598120212555,"181":1.2525262832641602,"182":0.3756626844406128,"183":-0.9923843741416931,"184":-2.1519978046417236,"185":2.6124985218048096,"186":-0.2038257122039795,"187":-0.5076971054077148,"188":-1.8774722814559937,"189":1.2925448417663574,"190":-1.5626003742218018,"191":-0.6369358897209167,"192":0.773148775100708,"193":0.635278582572937,"194":3.6277918815612793,"195":0.7860557436943054,"196":0.511198103427887,"197":2.1695237159729004,"198":1.7336812019348145,"199":0.47616854310035706,"200":1.9930840730667114,"201":-0.2446359097957611,"202":-3.6118903160095215,"203":0.9519413709640503,"204":-1.063593864440918,"205":-1.64018976688385,"206":2.7057957649230957,"207":-3.0901761054992676,"208":0.14941321313381195,"209":-2.5517032146453857,"210":-0.8449743390083313,"211":1.0870171785354614,"212":-1.6266025304794312,"213":-1.784595012664795,"214":0.5700472593307495,"215":-0.6556082367897034,"216":1.2458146810531616,"217":2.3335788249969482,"218":0.27699437737464905,"219":0.6459945440292358,"220":1.8305208683013916,"221":1.2574611902236938,"222":0.24156485497951508,"223":2.663687229156494,"224":-1.8838958740234375,"225":3.289296865463257,"226":1.7340786457061768,"227":0.23419146239757538,"228":0.028401069343090057,"229":0.35679730772972107,"230":3.3523519039154053,"231":2.895659923553467,"232":-1.3299285173416138,"233":2.1611313819885254,"234":-1.1956247091293335,"235":-1.0894320011138916,"236":0.31368282437324524,"237":-2.1977481842041016,"238":0.04676201567053795,"239":1.97577965259552,"240":-2.7115135192871094,"241":-1.3526365756988525,"242":-0.9821256995201111,"243":-1.061570167541504,"244":0.5702558755874634,"245":2.351994752883911,"246":1.9034347534179688,"247":0.10452230274677277,"248":2.9850594997406006,"249":0.806168258190155,"250":1.4967238903045654,"251":2.359208106994629,"252":-1.167590856552124,"253":-2.1189093589782715,"254":2.2128891944885254,"255":-0.10633688420057297,"256":0.4495828151702881,"257":-0.8945254683494568,"258":4.308610439300537,"259":-1.7325586080551147,"260":1.6173896789550781,"261":2.1356892585754395,"262":0.0375918373465538,"263":-1.8188445568084717,"264":-1.6757171154022217,"265":-2.1138362884521484,"266":-3.621323823928833,"267":-0.8825480341911316,"268":1.789238691329956,"269":-0.02614869549870491,"270":0.9721630811691284,"271":2.1495463848114014,"272":1.6568487882614136,"273":-0.31819984316825867,"274":-0.020392687991261482,"275":-2.9339356422424316,"276":-1.9299707412719727,"277":-0.8502070307731628,"278":-4.120585918426514,"279":-1.8502328395843506,"280":-1.3584403991699219,"281":0.2903554141521454,"282":-0.9502437114715576,"283":-0.15987351536750793,"284":3.227928876876831,"285":-1.0648380517959595,"286":-1.3125945329666138,"287":1.038112759590149,"288":1.3198765516281128,"289":0.34045279026031494,"290":2.2266459465026855,"291":-2.8249120712280273,"292":-0.2846720814704895,"293":0.48135608434677124,"294":-1.612717866897583,"295":0.9772365093231201,"296":-0.15984275937080383,"297":-2.005261182785034,"298":-1.1964781284332275,"299":0.032551802694797516,"300":2.166381597518921,"301":-1.6853489875793457,"302":-2.097626209259033,"303":-0.790314793586731,"304":2.249157190322876,"305":0.4509606957435608,"306":0.9101663827896118,"307":-1.417393684387207,"308":0.4663325548171997,"309":-2.0116841793060303,"310":-1.337961196899414,"311":-0.2031852751970291,"312":-3.9875197410583496,"313":-1.8610047101974487,"314":2.211902141571045,"315":-2.3076400756835938,"316":-0.4076075553894043,"317":-1.4472967386245728,"318":0.09289837628602982,"319":2.8383939266204834,"320":-0.35425621271133423,"321":-0.16114315390586853,"322":-0.6416864991188049,"323":2.016427755355835,"324":0.5372503995895386,"325":-1.1260662078857422,"326":-0.8239426612854004,"327":1.8916367292404175,"328":0.12155570089817047,"329":-0.028325842693448067,"330":4.229893207550049,"331":1.8809260129928589,"332":2.0772900581359863,"333":-0.6706399917602539,"334":-0.1992844194173813,"335":0.9111113548278809,"336":0.6471517086029053,"337":2.1851837635040283,"338":-1.3773150444030762,"339":4.885767936706543,"340":1.1374603509902954,"341":-1.1254767179489136,"342":0.5270319581031799,"343":0.713784396648407,"344":0.7678565382957458,"345":3.9323747158050537,"346":1.4391660690307617,"347":0.9898237586021423,"348":1.1784803867340088,"349":1.2255988121032715,"350":0.33180567622184753,"351":0.037549108266830444,"352":-0.16148938238620758,"353":-1.8032927513122559,"354":2.708308696746826,"355":0.9720920324325562,"356":-1.1136425733566284,"357":-4.281454086303711,"358":1.6790847778320312,"359":-0.7522390484809875,"360":-1.0543544292449951,"361":-1.4849987030029297,"362":-2.730693817138672,"363":0.9153167605400085,"364":-2.4593913555145264,"365":1.1708192825317383,"366":-0.4696182906627655,"367":1.0821318626403809,"368":2.3977365493774414,"369":-0.9305286407470703,"370":-0.1253422498703003,"371":0.39301952719688416,"372":-1.7282894849777222,"373":1.6852898597717285,"374":-0.4387717545032501,"375":-3.7355847358703613,"376":-1.8183730840682983,"377":0.8490409255027771,"378":-2.6616008281707764,"379":-3.654449939727783,"380":-1.8315106630325317,"381":-1.1686012744903564,"382":1.6320891380310059,"383":-1.4729888439178467,"384":2.1249895095825195,"385":0.9087361097335815,"386":-1.9526557922363281,"387":-0.509046196937561,"388":1.1169679164886475,"389":0.2894805371761322,"390":1.7309849262237549,"391":0.23401878774166107,"392":1.304925560951233,"393":0.9164422154426575,"394":0.052721619606018066,"395":-0.8663188219070435,"396":-2.754904270172119,"397":-4.365225315093994,"398":-1.8106502294540405,"399":-0.1480804979801178,"400":-0.5751133561134338,"401":-1.3224554061889648,"402":0.14946109056472778,"403":1.2023999691009521,"404":0.7046205997467041,"405":0.45745575428009033,"406":-2.1074445247650146,"407":2.4856112003326416,"408":0.1173911765217781,"409":0.18257711827754974,"410":1.209921956062317,"411":0.03459792956709862,"412":2.4397799968719482,"413":0.20650389790534973,"414":-0.49574074149131775,"415":1.2847129106521606,"416":1.4820111989974976,"417":-1.86905837059021,"418":0.6467593312263489,"419":4.042036533355713,"420":2.0043606758117676,"421":3.102458953857422,"422":4.46157169342041,"423":0.4287142753601074,"424":-0.9111278057098389,"425":0.7083321213722229,"426":2.798396587371826,"427":0.3092923164367676,"428":-1.5058274269104004,"429":-3.2690482139587402,"430":-3.1806159019470215,"431":-0.6520866751670837,"432":0.05500485375523567,"433":0.8490984439849854,"434":1.5480561256408691,"435":0.4166317284107208,"436":0.12625110149383545,"437":1.351144552230835,"438":3.5840773582458496,"439":-2.1312270164489746,"440":-3.17598819732666,"441":-4.3631367683410645,"442":1.0071746110916138,"443":-1.5284547805786133,"444":0.5427846908569336,"445":-1.7966251373291016,"446":-0.8439728021621704,"447":2.8893823623657227,"448":-1.7573899030685425,"449":-0.8043112754821777,"450":2.3015780448913574,"451":0.7688927054405212,"452":-4.174963474273682,"453":-0.9538716673851013,"454":4.320786952972412,"455":1.9126009941101074,"456":2.750586748123169,"457":-0.9642734527587891,"458":1.5884296894073486,"459":-0.7896257042884827,"460":1.0155274868011475,"461":-0.1715952306985855,"462":-1.5183241367340088,"463":-0.1583840250968933,"464":0.21867704391479492,"465":0.10787054151296616,"466":-1.7289597988128662,"467":-1.4448602199554443,"468":0.7331466674804688,"469":1.1717666387557983,"470":0.20534421503543854,"471":0.31861576437950134,"472":-1.2530181407928467,"473":3.0222866535186768,"474":1.718202829360962,"475":-1.6408628225326538,"476":-1.3826682567596436,"477":-0.8329656720161438,"478":-1.287493348121643,"479":-1.3099445104599,"480":-1.2317674160003662,"481":-0.09677749127149582,"482":3.0248844623565674,"483":-3.732121706008911,"484":-0.2392018735408783,"485":1.017700433731079,"486":0.5562329292297363,"487":-0.7188602685928345,"488":0.25300082564353943,"489":-0.755790114402771,"490":3.2064244747161865,"491":0.917746365070343,"492":2.0375118255615234,"493":1.002967119216919,"494":-0.31252390146255493,"495":-2.4788804054260254,"496":-2.546215772628784,"497":-3.789483070373535,"498":-1.207741379737854,"499":0.1292075514793396}},"outputHidden":{"rows":20,"columns":20,"weights":{"0":1.6479032039642334,"1":-0.1261201798915863,"2":1.5211589336395264,"3":0.1491604745388031,"4":7.1276679039001465,"5":5.171898365020752,"6":0.9480069875717163,"7":1.2359082698822021,"8":-0.2243659496307373,"9":1.9786369800567627,"10":0.9545013904571533,"11":-0.20273548364639282,"12":4.022068977355957,"13":1.1684997081756592,"14":-0.05803748592734337,"15":2.57655930519104,"16":1.8179655075073242,"17":-1.1914386749267578,"18":3.917685031890869,"19":0.4568626880645752,"20":0.5538651347160339,"21":-1.391006350517273,"22":-2.476414442062378,"23":2.523874521255493,"24":0.9367390871047974,"25":1.428397536277771,"26":-3.6731116771698,"27":-3.24792742729187,"28":-0.13138848543167114,"29":-1.256419062614441,"30":-1.4980238676071167,"31":-3.387974977493286,"32":-2.9758400917053223,"33":-2.919841766357422,"34":-1.725801944732666,"35":-1.766203761100769,"36":2.272960901260376,"37":0.5465765595436096,"38":-1.2147221565246582,"39":2.0562658309936523,"40":-2.1894185543060303,"41":-0.3698991537094116,"42":0.37262073159217834,"43":-4.714441299438477,"44":-3.0665123462677,"45":-3.611598253250122,"46":4.238279342651367,"47":-0.4004852771759033,"48":-1.1421834230422974,"49":-1.2615058422088623,"50":2.238179922103882,"51":1.490858793258667,"52":-1.5468299388885498,"53":2.5368146896362305,"54":0.6234729290008545,"55":-1.1687228679656982,"56":4.135580062866211,"57":2.4889228343963623,"58":-0.07949511706829071,"59":4.624538421630859,"60":-1.2072865962982178,"61":-1.0326741933822632,"62":-1.4301486015319824,"63":-4.040919780731201,"64":-0.3835506737232208,"65":-1.385460615158081,"66":0.024727830663323402,"67":1.4122464656829834,"68":-1.2543305158615112,"69":2.094041347503662,"70":0.14212118089199066,"71":1.5832382440567017,"72":-0.46406078338623047,"73":-2.453709840774536,"74":-1.740989327430725,"75":-0.20091593265533447,"76":-4.699998378753662,"77":-2.3495705127716064,"78":-1.446117639541626,"79":-5.205525875091553,"80":-1.8709218502044678,"81":-0.6960791349411011,"82":1.2093420028686523,"83":1.7959288358688354,"84":-2.906416654586792,"85":0.957123339176178,"86":-0.9391489624977112,"87":-1.3834244012832642,"88":3.888417959213257,"89":-0.1370377093553543,"90":1.6957911252975464,"91":3.6823079586029053,"92":3.778202772140503,"93":4.237007141113281,"94":-2.3782293796539307,"95":2.2415454387664795,"96":-2.417915105819702,"97":0.37279993295669556,"98":-1.0243242979049683,"99":0.0489276759326458,"100":0.3836326599121094,"101":0.6400363445281982,"102":1.5362321138381958,"103":-0.8945860266685486,"104":-1.5200042724609375,"105":-2.744109869003296,"106":2.2829766273498535,"107":-0.727686882019043,"108":0.3775573968887329,"109":-2.1302225589752197,"110":3.097144603729248,"111":-0.05795912817120552,"112":-3.0089144706726074,"113":0.6164431571960449,"114":-1.5933367013931274,"115":1.3715758323669434,"116":0.07151681184768677,"117":-0.3940383195877075,"118":1.9555974006652832,"119":4.04793119430542,"120":3.65944504737854,"121":0.4822136461734772,"122":3.3391571044921875,"123":-0.1221657246351242,"124":1.7224167585372925,"125":1.0765235424041748,"126":3.275047779083252,"127":-3.8064446449279785,"128":0.8750739097595215,"129":1.3507459163665771,"130":-0.6850149035453796,"131":-2.955519437789917,"132":2.1019020080566406,"133":-0.21436664462089539,"134":3.645470380783081,"135":-0.6405062675476074,"136":-2.510314464569092,"137":0.886917769908905,"138":-0.8125084638595581,"139":3.0204215049743652,"140":5.812817573547363,"141":3.6365232467651367,"142":2.882542371749878,"143":-0.6207050085067749,"144":1.7659004926681519,"145":-3.265612840652466,"146":-1.4826362133026123,"147":0.07902882248163223,"148":-0.13717298209667206,"149":-1.2930917739868164,"150":0.74138343334198,"151":-2.5343735218048096,"152":-0.4978485405445099,"153":-2.425629138946533,"154":-2.1578283309936523,"155":-0.9646276235580444,"156":2.6877284049987793,"157":-3.2163069248199463,"158":1.459357500076294,"159":1.2830723524093628,"160":-1.2429192066192627,"161":-2.215919256210327,"162":4.312448024749756,"163":-3.7378103733062744,"164":-4.316298961639404,"165":0.298612117767334,"166":-1.9494701623916626,"167":-1.0758817195892334,"168":1.2968394756317139,"169":-1.3456945419311523,"170":-0.7508420944213867,"171":-0.37358325719833374,"172":1.577708125114441,"173":4.387387752532959,"174":1.32603120803833,"175":1.8407092094421387,"176":-0.06435447186231613,"177":0.6660164594650269,"178":-3.097681760787964,"179":3.7879812717437744,"180":-0.37364521622657776,"181":-0.8597450256347656,"182":0.6707242727279663,"183":-1.066787838935852,"184":1.0082132816314697,"185":3.8224759101867676,"186":1.5505415201187134,"187":-1.6052943468093872,"188":-0.030092384666204453,"189":0.6784955263137817,"190":-2.392637252807617,"191":2.4990012645721436,"192":1.5723193883895874,"193":5.626684665679932,"194":2.424926519393921,"195":1.654211401939392,"196":1.5094256401062012,"197":1.814334750175476,"198":3.2881414890289307,"199":3.3459582328796387,"200":0.14114990830421448,"201":0.0668204203248024,"202":3.3772599697113037,"203":-3.323805093765259,"204":0.03791430592536926,"205":-1.1281225681304932,"206":-1.9848618507385254,"207":-0.470519095659256,"208":2.7292919158935547,"209":2.8546032905578613,"210":5.30722188949585,"211":1.4385937452316284,"212":0.017484324052929878,"213":-1.2849605083465576,"214":1.5559773445129395,"215":-1.5001757144927979,"216":-0.5374513268470764,"217":-3.2645537853240967,"218":4.692008018493652,"219":-0.39448273181915283,"220":-1.0075656175613403,"221":-2.594353675842285,"222":-1.239475131034851,"223":1.291843056678772,"224":-2.5311696529388428,"225":1.5194398164749146,"226":-0.05735067278146744,"227":-0.2631419599056244,"228":3.8148458003997803,"229":2.7805418968200684,"230":-2.0149130821228027,"231":2.5887694358825684,"232":0.2208343744277954,"233":4.084496974945068,"234":3.2418179512023926,"235":0.3097487688064575,"236":0.4119735360145569,"237":1.448121190071106,"238":4.295790672302246,"239":1.718373417854309,"240":0.31169745326042175,"241":-5.384875297546387,"242":-0.18973693251609802,"243":-5.208056926727295,"244":-4.604360580444336,"245":-3.194575071334839,"246":2.1273317337036133,"247":0.7018724083900452,"248":2.3010611534118652,"249":-3.1879022121429443,"250":4.367969989776611,"251":2.3649368286132812,"252":2.4575154781341553,"253":1.7166051864624023,"254":0.13960760831832886,"255":0.3055286109447479,"256":-1.4600633382797241,"257":-1.2499358654022217,"258":-3.3426859378814697,"259":-2.1034646034240723,"260":1.5854966640472412,"261":-1.5394049882888794,"262":-1.6376705169677734,"263":-2.9101767539978027,"264":0.6647211313247681,"265":-0.11224458366632462,"266":1.1488150358200073,"267":-0.6606269478797913,"268":0.3439578711986542,"269":0.06669583916664124,"270":0.23966901004314423,"271":-1.158567190170288,"272":0.5021786093711853,"273":-2.141822099685669,"274":0.05666769668459892,"275":0.9200152158737183,"276":-2.7042248249053955,"277":1.6149228811264038,"278":-0.8651606440544128,"279":-0.7086965441703796,"280":3.562485694885254,"281":-1.2816764116287231,"282":3.85064435005188,"283":2.9491500854492188,"284":1.935348391532898,"285":-0.7435248494148254,"286":-0.655281662940979,"287":0.07550806552171707,"288":3.0393993854522705,"289":3.772430181503296,"290":-4.159200668334961,"291":2.4013173580169678,"292":4.1106109619140625,"293":1.4335339069366455,"294":-0.9446889162063599,"295":2.5612428188323975,"296":-1.8152668476104736,"297":-1.5795515775680542,"298":2.8110544681549072,"299":-0.9332402944564819,"300":-2.3332712650299072,"301":-1.558432936668396,"302":-0.5085716247558594,"303":-0.10862626135349274,"304":-1.598034381866455,"305":2.1939563751220703,"306":0.9472095966339111,"307":1.1495760679244995,"308":-2.3690974712371826,"309":3.375222682952881,"310":-2.5614590644836426,"311":-1.5619182586669922,"312":-0.9563288688659668,"313":-1.9208247661590576,"314":-1.9923800230026245,"315":-3.016382932662964,"316":0.8272751569747925,"317":1.2044215202331543,"318":-0.3341067433357239,"319":2.9971721172332764,"320":1.2055481672286987,"321":-6.564755439758301,"322":-3.6483969688415527,"323":-1.7795162200927734,"324":2.623011827468872,"325":-3.0703654289245605,"326":-8.310440063476562,"327":5.691222667694092,"328":2.9073293209075928,"329":-6.804230213165283,"330":3.143923044204712,"331":0.29034197330474854,"332":-0.24223047494888306,"333":-1.5763192176818848,"334":4.42578125,"335":-6.867176055908203,"336":3.6372015476226807,"337":0.21055737137794495,"338":8.262839317321777,"339":-2.1320583820343018,"340":0.2944280505180359,"341":-0.7005738615989685,"342":-2.779289960861206,"343":-0.5369312167167664,"344":1.1583837270736694,"345":-0.5791478753089905,"346":-2.69189190864563,"347":3.1078593730926514,"348":0.1635379195213318,"349":1.1933635473251343,"350":0.9678918123245239,"351":0.015057764947414398,"352":-0.5144611597061157,"353":-0.59146648645401,"354":-1.2181168794631958,"355":-0.837568998336792,"356":0.38843098282814026,"357":1.2991712093353271,"358":0.637650728225708,"359":-3.039128541946411,"360":0.056742701679468155,"361":-0.253011018037796,"362":0.7075493931770325,"363":2.2450475692749023,"364":-1.2467316389083862,"365":2.4058215618133545,"366":-0.4751324951648712,"367":0.32380080223083496,"368":1.3121238946914673,"369":-0.9097214341163635,"370":1.154116153717041,"371":-0.5860984325408936,"372":2.0513620376586914,"373":1.1758726835250854,"374":-0.8488773703575134,"375":1.7428745031356812,"376":-0.022776901721954346,"377":-0.4123525023460388,"378":1.0453242063522339,"379":1.6749604940414429,"380":-3.1272811889648438,"381":0.92274409532547,"382":-0.339593768119812,"383":-0.4095636010169983,"384":-1.364024043083191,"385":-2.317556381225586,"386":2.008742332458496,"387":-3.59144926071167,"388":-2.7074878215789795,"389":-3.052161693572998,"390":-0.5205525159835815,"391":-1.0002464056015015,"392":-0.9138868451118469,"393":-0.44712644815444946,"394":2.8154356479644775,"395":0.45751866698265076,"396":-1.3034071922302246,"397":2.9908547401428223,"398":-2.038116455078125,"399":1.4448356628417969}},"outputBias":{"rows":20,"columns":1,"weights":{"0":-0.6059955954551697,"1":1.7611889839172363,"2":-0.2252463400363922,"3":-1.0036652088165283,"4":-2.4038119316101074,"5":-0.6656674742698669,"6":-1.7803069353103638,"7":-0.5055631995201111,"8":-0.04673962667584419,"9":0.6452600359916687,"10":2.0048985481262207,"11":-1.2737476825714111,"12":-0.19013844430446625,"13":-0.4655614197254181,"14":-1.2695544958114624,"15":-0.8010208010673523,"16":-0.07101044803857803,"17":-1.158484935760498,"18":-0.7797570824623108,"19":-0.6297293305397034}},"cellActivationMatrix":{"rows":20,"columns":25,"weights":{"0":1.3692760467529297,"1":0.13451871275901794,"2":-1.7602260112762451,"3":-0.1891327053308487,"4":2.4774651527404785,"5":2.391421318054199,"6":0.614509105682373,"7":-3.3035356998443604,"8":-2.1001875400543213,"9":-0.17620849609375,"10":1.638071894645691,"11":-1.67591392993927,"12":-0.2575179934501648,"13":0.7072514891624451,"14":-0.018281031399965286,"15":0.18525131046772003,"16":-1.1220334768295288,"17":0.7437489032745361,"18":1.4417192935943604,"19":-0.2942344546318054,"20":-0.29880860447883606,"21":0.778762936592102,"22":-0.2626930773258209,"23":1.5869780778884888,"24":0.26207953691482544,"25":-1.4429322481155396,"26":0.6716554760932922,"27":-0.3123290240764618,"28":-0.025729523971676826,"29":-1.7475255727767944,"30":-1.1434608697891235,"31":-0.41497522592544556,"32":-0.39299389719963074,"33":0.7350271940231323,"34":-0.7127036452293396,"35":0.06018076837062836,"36":-1.2434005737304688,"37":0.9513165354728699,"38":1.2024040222167969,"39":0.2029285728931427,"40":1.9617756605148315,"41":-1.6011732816696167,"42":0.37549808621406555,"43":1.793125033378601,"44":-1.5713095664978027,"45":0.9202819466590881,"46":-1.1679904460906982,"47":-1.3288378715515137,"48":0.4511909782886505,"49":0.29068440198898315,"50":-0.2897438406944275,"51":-1.4285701513290405,"52":0.11124720424413681,"53":2.156935453414917,"54":-0.5417656302452087,"55":-1.4862525463104248,"56":0.9751031398773193,"57":-2.0244905948638916,"58":1.665588617324829,"59":-2.8747005462646484,"60":0.35167932510375977,"61":-1.145748496055603,"62":-1.3744741678237915,"63":0.3775281012058258,"64":2.26216721534729,"65":0.7248216867446899,"66":-1.6565278768539429,"67":1.0856099128723145,"68":0.8607706427574158,"69":-0.077347531914711,"70":-1.3790245056152344,"71":-0.41940751671791077,"72":0.22136099636554718,"73":-0.7116315364837646,"74":2.2614905834198,"75":0.04196051508188248,"76":-0.7055182456970215,"77":0.5148515701293945,"78":0.7731264233589172,"79":0.9174404144287109,"80":-0.8048132658004761,"81":0.4135154187679291,"82":0.1506342887878418,"83":0.3651675581932068,"84":1.7667064666748047,"85":0.173438161611557,"86":0.38858798146247864,"87":0.0011892897309735417,"88":1.0539460182189941,"89":-0.1563732773065567,"90":-0.035067860037088394,"91":0.9991469383239746,"92":-2.3637876510620117,"93":0.009157787077128887,"94":0.3203064799308777,"95":1.8463088274002075,"96":1.1386950016021729,"97":0.22253797948360443,"98":2.509005069732666,"99":0.8723403215408325,"100":1.323874831199646,"101":0.7470252513885498,"102":0.3557000458240509,"103":0.39352771639823914,"104":-0.26516181230545044,"105":0.4209245443344116,"106":2.24137282371521,"107":-0.8051290512084961,"108":1.1453673839569092,"109":-1.0764724016189575,"110":0.001090706791728735,"111":-0.5145954489707947,"112":-1.5740177631378174,"113":-1.2064168453216553,"114":0.9564383029937744,"115":-1.2681981325149536,"116":-1.5212136507034302,"117":-0.48571348190307617,"118":-0.390156626701355,"119":0.06061255559325218,"120":0.03611871227622032,"121":0.6622925400733948,"122":-0.1650012880563736,"123":2.133559226989746,"124":0.5166298151016235,"125":0.9828802347183228,"126":1.4142531156539917,"127":-1.265932321548462,"128":-0.07739263772964478,"129":-1.034804105758667,"130":0.11516084522008896,"131":-1.1403193473815918,"132":-0.6362671852111816,"133":-0.28944098949432373,"134":-0.3198505938053131,"135":-1.5342929363250732,"136":-0.03435530886054039,"137":1.6746492385864258,"138":-0.05360444635152817,"139":0.19543080031871796,"140":-0.40753427147865295,"141":-1.4028493165969849,"142":0.2008710652589798,"143":0.20087562501430511,"144":0.2006138116121292,"145":-1.2301455736160278,"146":-0.8646265864372253,"147":1.1888459920883179,"148":-0.9047697186470032,"149":0.3395797610282898,"150":0.36207789182662964,"151":1.599021315574646,"152":0.018459836021065712,"153":-0.05661420151591301,"154":0.6151637434959412,"155":0.9547907710075378,"156":1.127238154411316,"157":1.044318675994873,"158":1.159024715423584,"159":-0.09609705954790115,"160":0.1991395652294159,"161":-1.291030764579773,"162":-0.7248044610023499,"163":0.5535872578620911,"164":1.5712165832519531,"165":0.7191786766052246,"166":-1.4499931335449219,"167":2.249063014984131,"168":1.5257518291473389,"169":0.17471511662006378,"170":-1.7453408241271973,"171":-2.545660972595215,"172":0.5804594159126282,"173":-1.1459190845489502,"174":2.32737135887146,"175":-0.5989482402801514,"176":-3.591701030731201,"177":1.5252031087875366,"178":-1.2147538661956787,"179":-1.2096219062805176,"180":-1.453216552734375,"181":-1.043845534324646,"182":1.6234527826309204,"183":1.8133788108825684,"184":0.9139805436134338,"185":-1.5289690494537354,"186":0.4899372458457947,"187":1.3015062808990479,"188":-0.16693565249443054,"189":-1.1998628377914429,"190":0.6766061782836914,"191":2.202136754989624,"192":-0.9350884556770325,"193":-0.6740685701370239,"194":-0.6040991544723511,"195":1.56150221824646,"196":0.7056112289428711,"197":-1.9995086193084717,"198":2.036409616470337,"199":-2.1853318214416504,"200":-1.6918048858642578,"201":0.42693889141082764,"202":-1.4949405193328857,"203":0.17387637495994568,"204":-0.1957247257232666,"205":-1.4005473852157593,"206":0.1922677457332611,"207":-1.0293376445770264,"208":0.8263447880744934,"209":0.295227974653244,"210":0.00258695799857378,"211":-2.0368809700012207,"212":-0.7216119766235352,"213":0.05320592224597931,"214":0.4346831440925598,"215":1.1001120805740356,"216":-2.584540843963623,"217":-0.5113579630851746,"218":1.7055647373199463,"219":1.1834101676940918,"220":-0.458365261554718,"221":-0.8392273783683777,"222":-0.3886116147041321,"223":0.06043337285518646,"224":0.16734246909618378,"225":0.42965778708457947,"226":2.7342257499694824,"227":-3.5252604484558105,"228":-1.800370216369629,"229":0.24370470643043518,"230":0.9470155835151672,"231":1.5353578329086304,"232":-0.8408800363540649,"233":0.6157615780830383,"234":-0.17060212790966034,"235":1.6623249053955078,"236":-0.12557722628116608,"237":0.2019958645105362,"238":-1.4672536849975586,"239":0.6084317564964294,"240":-1.350696086883545,"241":-1.5830378532409668,"242":-0.6367197632789612,"243":0.836525022983551,"244":0.9925616383552551,"245":-0.37129971385002136,"246":-0.48852062225341797,"247":0.2473113238811493,"248":-0.5643320679664612,"249":1.6314654350280762,"250":0.028505342081189156,"251":-1.396073341369629,"252":-0.06657906621694565,"253":1.0438412427902222,"254":0.14130428433418274,"255":0.2100520133972168,"256":0.9218050241470337,"257":2.3976402282714844,"258":-0.9679847359657288,"259":1.3947728872299194,"260":-0.06112982705235481,"261":0.5347683429718018,"262":0.25614774227142334,"263":-0.7616488933563232,"264":1.1182456016540527,"265":4.727176666259766,"266":3.4217207431793213,"267":-0.6312621235847473,"268":-0.0665314793586731,"269":-0.20594683289527893,"270":-0.6299299001693726,"271":-0.07283184677362442,"272":-1.9395121335983276,"273":-1.317684292793274,"274":0.7325308322906494,"275":-1.2669780254364014,"276":-0.00007516217010561377,"277":-2.432681083679199,"278":-3.4795262813568115,"279":-0.5066786408424377,"280":2.822225332260132,"281":0.09258747845888138,"282":1.2424250841140747,"283":-1.3979665040969849,"284":-0.09645697474479675,"285":2.1747357845306396,"286":0.5730959177017212,"287":0.14388738572597504,"288":-1.411272644996643,"289":0.2048388123512268,"290":0.4955753684043884,"291":-0.7781867980957031,"292":-1.4688881635665894,"293":-1.5217982530593872,"294":1.4335821866989136,"295":0.86263507604599,"296":0.6372178792953491,"297":-0.35945460200309753,"298":-0.34224459528923035,"299":0.13773860037326813,"300":0.3505162000656128,"301":-0.7218021750450134,"302":-0.8938201665878296,"303":-0.16112618148326874,"304":-0.6404354572296143,"305":-2.1238133907318115,"306":0.7255481481552124,"307":-1.3064992427825928,"308":0.7067754864692688,"309":-0.6458808183670044,"310":-0.10379023104906082,"311":1.2383040189743042,"312":-2.561126232147217,"313":0.33447712659835815,"314":0.13483157753944397,"315":-2.678896188735962,"316":-1.0542628765106201,"317":-0.15491943061351776,"318":1.7156648635864258,"319":0.87423175573349,"320":-0.23704062402248383,"321":0.05292459577322006,"322":-1.9993358850479126,"323":0.9392576217651367,"324":-0.4799531102180481,"325":-0.5917115807533264,"326":1.1593892574310303,"327":-1.3604072332382202,"328":-0.6108419895172119,"329":-1.2519522905349731,"330":0.03281319886445999,"331":0.6129284501075745,"332":-0.5767261981964111,"333":-0.8078635931015015,"334":0.7792910933494568,"335":-0.7925326228141785,"336":-1.8743706941604614,"337":-0.7396729588508606,"338":-1.2151436805725098,"339":0.06133843958377838,"340":-0.9115682244300842,"341":-2.0529093742370605,"342":1.0858882665634155,"343":0.5613733530044556,"344":0.06908255815505981,"345":-0.40541017055511475,"346":-1.620294213294983,"347":0.7338354587554932,"348":-0.6904300451278687,"349":-0.4695780575275421,"350":-1.2200249433517456,"351":1.2793132066726685,"352":-0.2893812358379364,"353":-1.095276117324829,"354":-1.756976842880249,"355":0.03293094038963318,"356":-0.09427421540021896,"357":1.228664517402649,"358":0.4398062825202942,"359":0.5573531985282898,"360":2.7913095951080322,"361":0.09664548188447952,"362":-0.5177679657936096,"363":-0.14223873615264893,"364":1.7347996234893799,"365":-1.1417202949523926,"366":-0.46977469325065613,"367":-0.154609814286232,"368":0.8971944451332092,"369":2.236586093902588,"370":0.15167908370494843,"371":1.3147354125976562,"372":1.0077975988388062,"373":0.03478318080306053,"374":0.7582778930664062,"375":-0.3957018256187439,"376":1.0957492589950562,"377":-0.9128468036651611,"378":-0.4961315393447876,"379":-1.799296259880066,"380":-2.074275016784668,"381":1.3651810884475708,"382":-0.7828426361083984,"383":0.6517439484596252,"384":1.5311646461486816,"385":2.0247840881347656,"386":-1.647911787033081,"387":-1.8294540643692017,"388":1.2327536344528198,"389":0.3446004092693329,"390":0.647411584854126,"391":-0.3991197347640991,"392":0.7352100610733032,"393":2.081907272338867,"394":1.124970555305481,"395":-1.571784496307373,"396":0.039999812841415405,"397":-0.7376944422721863,"398":-1.7630112171173096,"399":0.33705905079841614,"400":0.9588492512702942,"401":1.1680988073349,"402":0.6127761006355286,"403":2.911954879760742,"404":1.0869338512420654,"405":1.7467159032821655,"406":1.3490654230117798,"407":1.0187301635742188,"408":0.25393423438072205,"409":0.4324672222137451,"410":1.5252315998077393,"411":1.6055126190185547,"412":0.7523569464683533,"413":1.1207035779953003,"414":-0.558302104473114,"415":0.23365098237991333,"416":1.61831533908844,"417":-1.4991861581802368,"418":-0.5852773785591125,"419":0.3172203600406647,"420":0.8445161581039429,"421":3.5577199459075928,"422":-0.3522118031978607,"423":2.3624351024627686,"424":-0.26819106936454773,"425":0.37966111302375793,"426":1.0469359159469604,"427":0.19102968275547028,"428":0.14514347910881042,"429":-1.0773824453353882,"430":-2.169079065322876,"431":-1.5529307126998901,"432":0.09543181955814362,"433":0.171793594956398,"434":1.449147343635559,"435":-0.3091590106487274,"436":-0.05337714031338692,"437":0.999270498752594,"438":-1.0628554821014404,"439":-1.7284456491470337,"440":-1.6187310218811035,"441":-0.19520367681980133,"442":-0.35764163732528687,"443":0.3829396963119507,"444":1.5865250825881958,"445":0.4014417231082916,"446":0.1685328483581543,"447":2.082249879837036,"448":0.43336477875709534,"449":-0.0812510997056961,"450":-1.9871498346328735,"451":-0.5287797451019287,"452":0.7676447629928589,"453":0.2532420754432678,"454":-0.08167238533496857,"455":-0.7173339128494263,"456":-1.1480942964553833,"457":0.3974402844905853,"458":-1.8767598867416382,"459":0.7724716067314148,"460":-0.3154663145542145,"461":0.60884028673172,"462":2.207443952560425,"463":0.2937740683555603,"464":-0.5479910373687744,"465":0.4225142002105713,"466":0.337169885635376,"467":0.11783801764249802,"468":-0.08660511672496796,"469":0.0867672935128212,"470":-0.8336687684059143,"471":0.03376474976539612,"472":0.6162978410720825,"473":-1.1044118404388428,"474":-0.9132794737815857,"475":-0.9863298535346985,"476":1.1046192646026611,"477":-0.7138421535491943,"478":-0.8009403944015503,"479":-0.8556780219078064,"480":-1.6330032348632812,"481":0.10523930191993713,"482":-1.9360805749893188,"483":-0.5279474854469299,"484":2.378896474838257,"485":-0.04595312848687172,"486":-1.771904706954956,"487":-0.5575167536735535,"488":0.9291684031486511,"489":-0.04072503000497818,"490":-0.614869236946106,"491":-0.9445213675498962,"492":2.008112907409668,"493":0.8895296454429626,"494":-0.6012883186340332,"495":-2.8779361248016357,"496":-1.6831836700439453,"497":0.0027785308193415403,"498":-0.4691738784313202,"499":-0.1374977082014084}},"cellActivationHidden":{"rows":20,"columns":20,"weights":{"0":-1.8515573740005493,"1":-1.4766943454742432,"2":-0.7810311317443848,"3":0.11398319154977798,"4":-2.447990894317627,"5":0.418578565120697,"6":0.9225746393203735,"7":0.8896148800849915,"8":-0.22414954006671906,"9":-0.7232452034950256,"10":-1.93880295753479,